tree
version=v4
num_class=1
num_tree_per_iteration=1
label_index=0
max_feature_idx=8
objective=regression
feature_names=avg_temp year month day_of_week day_of_year week_of_year rolling_mean_7 rolling_mean_14 rolling_mean_30
feature_infos=[-16.300000000000001:34.600000000000001] [2022:2024] [1:12] [0:6] [1:365] [1:52] [3.297851308241103:4.4248564973192677] [3.3201099466483193:4.3954506498423696] [3.3481229961534922:4.3710145115098173]
tree_sizes=2270 2513 2515 2514 2613 2342 2339 2516 2608 2441 2530 2450 2358 2451 2538 2298 2457 2476 2392 2481 2567 2481 2573 2388 2295 2578 2578 2309 2391 2311 2405 2299 2654 2582 2496 2471 2578 2574 2570 2402 2480 2412 2483 2501 2565 2670 2497 2676 2590 2503 2495 2500 2482 2602 2398 2409 2586 2340 2589 2422 2417 2410 2423 2421 2512 2424 2434 2524 2340 2516 2259 2431 2518 2603 2352 2693 2787 2520 2688 2701 2425 2512 2341 2520 2435 2525 2517 2350 2618 2704 2677 2701 2617 2620 2601 2616 2530 2626 2450 2705 2609 2448 2432 2698 2525 2347 2540 2634 2535 2444 2713 2603 2612 2614

Tree=0
num_leaves=27
num_cat=0
split_feature=6 6 6 0 6 0 0 6 3 8 0 0 6 0 3 3 7 3 6 4 0 6 4 4 8 6
split_gain=43.0196 5.93708 4.70971 2.01768 1.23412 0.53768 0.719753 0.529902 0.519148 0.403575 0.399736 0.372262 0.309212 0.168073 0.145089 0.139744 0.134053 0.10714 0.101205 0.0955481 0.0910718 0.0868886 0.0569533 0.0333205 0.0272879 0.0184441
threshold=3.8135887492704943 3.5075392325949037 4.0598342302063957 28.700000000000006 3.6908304519053781 28.700000000000006 16.950000000000003 3.9397017442450908 1.0000000180025095e-35 3.5881279097539767 7.8500000000000005 20.150000000000002 3.4135127226301174 5.3500000000000005 1.5000000000000002 3.5000000000000004 3.7642252692247156 4.5000000000000009 4.2604793145731188 147.50000000000003 13.200000000000001 4.1181901106200778 328.50000000000006 38.500000000000007 3.8004536430105538 3.3551553115779149
decision_type=2 2 2 2 2 2 2 2 2 2 2 2 2 2 2 2 2 2 2 2 2 2 2 2 2 2
left_child=1 8 5 10 9 6 7 22 -1 -3 21 20 17 -9 -6 -12 -16 25 -5 -14 -11 -4 -2 -23 -18 -10
right_child=2 4 3 18 14 -7 -8 13 12 11 15 -13 19 -15 16 -17 24 -19 -20 -21 -22 23 -24 -25 -26 -27
leaf_value=3.8078966889807693 3.822454414606697 3.8163654714704229 3.8353335681675271 3.843860291394503 3.8204389501986649 3.8341069664249643 3.8188019850214081 3.8336996396535747 3.7942729836039426 3.8136605768904759 3.8295798591801633 3.8041950317315845 3.7998250196353136 3.8282874721333124 3.8132509058319015 3.834569038053762 3.8192595412242984 3.7994608663523306 3.8481850893459892 3.8039198928462334 3.8094524405208983 3.8397699725035936 3.8258556843803002 3.8370773372331373 3.8167915349959909 3.7963945974686855
leaf_weight=20 32 20 35 24 32 21 31 26 21 20 32 32 28 32 23 25 21 25 31 29 36 27 20 20 24 20
leaf_count=20 32 20 35 24 32 21 31 26 21 20 32 32 28 32 23 25 21 25 31 29 36 27 20 20 24 20
internal_value=3.82069 3.80827 3.83294 3.83819 3.81366 3.82664 3.82553 3.82743 3.80043 3.80995 3.83498 3.8085 3.79921 3.83071 3.81766 3.83177 3.81636 3.79688 3.8463 3.80191 3.81096 3.83722 3.82376 3.83862 3.81794 3.79531
internal_weight=707 351 356 194 208 162 141 110 143 108 139 88 123 58 100 57 68 66 55 57 56 82 52 47 45 41
internal_count=707 351 356 194 208 162 141 110 143 108 139 88 123 58 100 57 68 66 55 57 56 82 52 47 45 41
is_linear=0
shrinkage=1


Tree=1
num_leaves=28
num_cat=0
split_feature=6 6 6 0 6 6 3 8 0 0 0 6 0 0 3 3 7 3 6 4 0 6 2 3 4 8 6
split_gain=38.8252 5.35822 4.25051 1.82095 1.11379 0.507328 0.468531 0.364226 0.360762 0.335967 0.28596 0.279063 0.205881 0.17462 0.130943 0.126119 0.120982 0.0966942 0.0913375 0.0862322 0.0821923 0.078417 0.0493061 0.0473542 0.0300717 0.0246274 0.0166458
threshold=3.8135887492704943 3.5075392325949037 4.0598342302063957 28.700000000000006 3.6908304519053781 3.8858543213820771 1.0000000180025095e-35 3.5881279097539767 7.8500000000000005 20.150000000000002 4.4500000000000011 3.4135127226301174 27.550000000000004 16.250000000000004 1.5000000000000002 3.5000000000000004 3.7642252692247156 4.5000000000000009 4.2604793145731188 147.50000000000003 13.200000000000001 4.1181901106200778 3.5000000000000004 3.5000000000000004 38.500000000000007 3.8004536430105538 3.3551553115779149
decision_type=2 2 2 2 2 2 2 2 2 2 2 2 2 2 2 2 2 2 2 2 2 2 2 2 2 2 2
left_child=1 6 5 8 7 23 -1 -3 21 20 -7 17 13 22 -6 -10 -16 26 -5 -13 -9 -4 -12 -2 -23 -18 -8
right_child=2 4 3 18 14 10 11 9 15 -11 12 19 -14 -15 16 -17 25 -19 -20 -21 -22 24 -24 -25 -26 -27 -28
leaf_value=-0.012052053660154343 5.9744731212655701e-05 -0.004006710193352774 0.014012982355696816 0.022113368908564249 -0.00013690547039004741 0.011961231839710049 -0.024994573564756484 -0.0065763598680496221 0.0085469582118093967 -0.015568628325127065 0.0046365614514797928 -0.019720138835587674 0.010316198482178152 0.00083544075256213556 -0.0069655474356335144 0.013286678194999697 -0.0012573440381813618 -0.020066084533929829 0.026221927087153159 -0.015830009398532324 -0.010574089596047997 0.018227566778659821 0.007998005606835553 0.0032255070550101144 0.015669562211260198 -0.0036019499122630807 -0.022979040183126926
leaf_weight=20 27 20 35 24 32 28 21 20 32 32 20 28 22 20 23 25 21 25 31 29 36 27 24 21 20 24 20
leaf_count=20 27 20 35 24 32 28 21 20 32 32 20 28 22 20 23 25 21 25 31 29 36 27 24 21 20 24 20
internal_value=0.000101151 -0.011699 0.0117356 0.0167281 -0.00657675 0.00575686 -0.0191496 -0.0100975 0.013681 -0.0114817 0.00757248 -0.0203037 0.00614359 0.00470925 -0.0027744 0.0106258 -0.00401557 -0.022517 0.0244291 -0.017741 -0.00914633 0.0158048 0.00647008 0.00144477 0.0171391 -0.0025078 -0.0240114
internal_weight=707 351 356 194 208 162 143 108 139 88 114 123 86 64 100 57 68 66 55 57 56 82 44 48 47 45 41
internal_count=707 351 356 194 208 162 143 108 139 88 114 123 86 64 100 57 68 66 55 57 56 82 44 48 47 45 41
is_linear=0
shrinkage=0.05


Tree=2
num_leaves=28
num_cat=0
split_feature=6 6 6 0 6 0 0 6 3 8 0 0 6 3 0 3 7 2 7 3 4 0 6 4 4 8 6
split_gain=35.0397 4.83579 3.83609 1.6494 1.0052 0.478753 0.627394 0.452787 0.42285 0.328714 0.30321 0.257761 0.251855 0.186939 0.132361 0.118176 0.109187 0.0946353 0.088895 0.0872665 0.0778245 0.0741786 0.0707713 0.0499111 0.0271397 0.0222262 0.0150228
threshold=3.8135887492704943 3.5075392325949037 4.0598342302063957 29.450000000000003 3.6908304519053781 28.700000000000006 16.950000000000003 3.9397017442450908 1.0000000180025095e-35 3.5881279097539767 20.150000000000002 7.8500000000000005 3.4135127226301174 4.5000000000000009 5.3500000000000005 1.5000000000000002 3.7642252692247156 6.5000000000000009 4.2321832702215589 4.5000000000000009 147.50000000000003 13.200000000000001 4.1181901106200778 328.50000000000006 38.500000000000007 3.8004536430105538 3.3551553115779149
decision_type=2 2 2 2 2 2 2 2 2 2 2 2 2 2 2 2 2 2 2 2 2 2 2 2 2 2 2
left_child=1 8 5 11 9 6 7 23 -1 -3 21 22 19 17 -9 -6 -17 -13 -5 26 -14 -11 -4 -2 -24 -18 -10
right_child=2 4 3 18 15 -7 -8 14 12 10 -12 13 20 -15 -16 16 25 -19 -20 -21 -22 -23 24 -25 -26 -27 -28
leaf_value=-0.011449450701475144 0.0015780612520757131 -0.003806374818086624 0.013312333013330188 0.021337291936982763 -0.00013006013723497746 0.01251218624945198 -0.0018626603786082519 0.011877931683109357 -0.023744845106488183 -0.0062475419044494629 -0.014790196531976108 0.01111063158816912 -0.018734131979623012 0.014720891229808332 0.0070750406594015658 -0.0066172700668887599 -0.0011944768002389798 0.0063584307907149197 0.025584497515644344 -0.019062780380249025 -0.015038508838363763 -0.010045384951970644 0.017316187973375675 0.0047621144540607938 0.014886084208264948 -0.0034218524893124902 -0.021830089055001736
leaf_weight=20 32 20 35 22 32 21 31 26 21 20 32 22 28 20 32 23 21 20 28 25 29 36 27 20 20 24 20
leaf_count=20 32 20 35 22 32 21 31 26 21 20 32 22 28 20 32 23 21 20 28 25 29 36 27 20 20 24 20
internal_value=9.6093e-05 -0.0111141 0.0111488 0.0158917 -0.00624791 0.00546902 0.00442004 0.00619062 -0.0181921 -0.00959258 -0.0109076 0.0131751 -0.0192885 0.0107423 0.00922806 -0.00263568 -0.00381479 0.00884768 0.0237157 -0.0213911 -0.0168539 -0.00868901 0.0150145 0.0028027 0.0162821 -0.00238241 -0.0228108
internal_weight=707 351 356 194 208 162 141 110 143 108 88 144 123 62 58 100 68 42 50 66 57 56 82 52 47 45 41
internal_count=707 351 356 194 208 162 141 110 143 108 88 144 123 62 58 100 68 42 50 66 57 56 82 52 47 45 41
is_linear=0
shrinkage=0.05


Tree=3
num_leaves=28
num_cat=0
split_feature=6 6 6 0 0 0 6 3 6 0 0 6 7 8 0 8 3 0 3 6 6 6 7 5 3 5 6
split_gain=31.6234 4.3643 3.46207 1.49586 0.922322 1.30523 0.438246 0.381622 0.331037 0.303085 0.230791 0.227299 0.192031 0.192386 0.1327 0.126064 0.120008 0.0815379 0.0787581 0.0754828 0.0674255 0.0651388 0.0877576 0.0527779 0.0427723 0.0337197 0.0135581
threshold=3.8135887492704943 3.5075392325949037 4.0598342302063957 28.700000000000006 26.250000000000004 18.350000000000005 3.8858543213820771 1.0000000180025095e-35 3.7228274622844428 9.1500000000000004 4.4500000000000011 3.4135127226301174 3.9813944933248471 4.0981899506966846 22.150000000000002 3.6213519026773198 3.5000000000000004 13.200000000000001 4.5000000000000009 4.2604793145731188 3.4587753187681689 4.1312776397389674 4.0935529644947835 5.5000000000000009 3.5000000000000004 5.5000000000000009 3.3551553115779149
decision_type=2 2 2 2 2 2 2 2 2 2 2 2 2 2 2 2 2 2 2 2 2 2 2 2 2 2 2
left_child=1 7 6 9 5 8 24 -1 15 21 -8 18 -12 -14 -7 -3 -11 -17 26 -5 -13 22 -4 -23 -2 -10 -9
right_child=2 4 3 19 -6 14 10 11 25 16 12 20 13 -15 -16 17 -18 -19 -20 -21 -22 23 -24 -25 -26 -27 -28
leaf_value=-0.010876978328451515 -0.00012851589255862767 -0.0032201178284594792 0.01491829092087953 0.019971737855424485 0.0042725513037294152 -0.011309916141181021 0.010825786982396883 -0.022557602822780611 5.03270326936174e-05 0.0062661098464476791 0.0082548019785271647 -0.017425598116482005 5.5945171466605238e-05 0.0064089500945276366 -0.016228254659896871 -0.0060581288882531233 0.011550412291572207 -0.010029741632752122 -0.018109640926122668 0.023706723653501082 -0.013920370380029731 0.01702476733110168 0.010715367217306739 0.013634312944486738 0.0028801938075394859 -0.0024347814202953419 -0.020738583691418174
leaf_weight=20 27 20 23 24 20 32 28 21 21 22 38 34 22 26 24 28 21 24 25 31 23 22 27 24 21 39 20
leaf_count=20 27 20 23 24 20 32 28 21 21 22 38 34 22 26 24 28 21 24 25 31 23 22 27 24 21 39 20
internal_value=9.12883e-05 -0.0105584 0.0105914 0.0150972 -0.00593552 -0.00702148 0.00519557 -0.0172825 -0.0043079 0.0123354 0.00688305 -0.0183241 0.00559937 0.00349716 -0.0134178 -0.00659366 0.00884682 -0.00789118 -0.0203216 0.0220769 -0.0160112 0.013898 0.0126487 0.0152558 0.00118779 -0.00156499 -0.0216703
internal_weight=707 351 356 194 208 188 162 143 132 139 114 123 86 48 56 72 43 52 66 55 57 96 50 46 48 60 41
internal_count=707 351 356 194 208 188 162 143 132 139 114 123 86 48 56 72 43 52 66 55 57 96 50 46 48 60 41
is_linear=0
shrinkage=0.05


Tree=4
num_leaves=29
num_cat=0
split_feature=6 6 6 0 3 6 3 0 0 6 6 0 3 0 0 8 6 7 2 7 6 8 2 5 3 7 0 0
split_gain=28.5401 3.96561 3.12452 1.35091 0.625164 0.622777 0.48926 0.433932 0.553492 0.385701 0.385366 0.215932 0.160108 0.136223 0.106938 0.0871208 0.0856735 0.0819042 0.0808997 0.0756181 0.0593212 0.0570068 0.0564197 0.139779 0.0472332 0.0355663 0.0254137 0.00704613
threshold=3.8135887492704943 3.5505543852895625 4.0598342302063957 29.450000000000003 1.0000000180025095e-35 3.7150555968995449 1.0000000180025095e-35 28.700000000000006 16.950000000000003 3.4587753187681689 3.9397017442450908 7.8500000000000005 4.5000000000000009 16.550000000000004 5.3500000000000005 3.533266575446544 3.3662465356506925 3.407477874115961 6.5000000000000009 4.2321832702215589 4.1181901106200778 3.6955863551052484 5.5000000000000009 6.5000000000000009 3.5000000000000004 3.8470864774984292 2.4500000000000006 22.450000000000003
decision_type=2 2 2 2 2 2 2 2 2 2 2 2 2 2 2 2 2 2 2 2 2 2 2 2 2 2 2 2
left_child=1 6 7 11 -3 13 -1 8 10 16 25 20 18 21 -12 -11 27 -18 -13 -5 -4 -6 23 -7 -15 -2 -22 -8
right_child=2 4 3 19 5 22 9 -9 -10 15 14 12 -14 24 -16 -17 17 -19 -20 -21 26 -23 -24 -25 -26 -27 -28 -29
leaf_value=-0.0089330447507866961 0.00082058059051632888 0.0026097348047187554 0.012008876672812871 0.019229397380893881 -0.0050566842337138951 -0.00079744862665867685 -0.019328012019395831 0.011641166598669121 -0.0019639622630371204 -0.01044409328495108 0.01078416790562467 0.009995949556204406 0.013339073769748211 -0.012772943221498282 0.0064671070998883811 -0.014853923659150801 -0.014507363941520452 -0.018498081310341755 0.0056021333043463533 0.023146614006587438 0.013376915487460792 -0.0086711065106404323 -0.00067778945861694719 -0.0061484922675075588 -0.0093777785166388461 0.0035084053954051344 0.015728477167862433 -0.020598735411961874
leaf_weight=24 20 24 35 22 20 23 20 21 31 21 26 22 20 20 32 24 20 36 20 28 20 24 24 26 21 32 27 24
leaf_count=24 20 24 35 22 20 23 20 21 31 21 26 22 20 20 32 24 20 36 20 28 20 24 24 26 21 32 27 24
internal_value=8.67238e-05 -0.0100305 0.0100618 0.0143423 -0.00490916 -0.00605128 -0.0155457 0.00493579 0.00393712 -0.0166402 0.00560015 0.0118837 0.00965702 -0.00896038 0.00840234 -0.012796 -0.0183701 -0.0170728 0.00790366 0.021423 0.0135673 -0.00702819 -0.00266396 -0.00363678 -0.011034 0.00247463 0.0147278 -0.0200211
internal_weight=707 351 356 194 182 158 169 162 141 145 110 144 62 85 58 45 100 56 42 50 82 44 73 49 41 52 47 44
internal_count=707 351 356 194 182 158 169 162 141 145 110 144 62 85 58 45 100 56 42 50 82 44 73 49 41 52 47 44
is_linear=0
shrinkage=0.05


Tree=5
num_leaves=26
num_cat=0
split_feature=6 6 0 0 6 0 6 3 0 1 6 8 6 0 0 0 6 3 0 8 8 0 4 6 0
split_gain=25.7083 4.72103 1.82085 1.1698 0.876221 0.742847 0.641572 0.486553 0.381143 0.27803 0.274374 0.267446 0.230837 0.387082 0.182011 0.192364 0.127232 0.0943158 0.0879776 0.0592628 0.0581662 0.0528028 0.0477905 0.033227 0.0155511
threshold=3.8858543213820771 3.615035853873918 29.450000000000003 29.250000000000004 4.0552800939088582 20.150000000000002 3.4587753187681689 1.5000000000000002 4.4500000000000011 2022.5000000000002 3.7816941643524857 3.9479269078251682 4.2442852787731313 8.5500000000000025 17.950000000000003 23.750000000000004 4.1312776397389674 1.5000000000000002 16.350000000000005 3.692106483249761 4.0971102309925582 25.650000000000002 89.500000000000014 3.406421023164667 2.4500000000000006
decision_type=2 2 2 2 2 2 2 2 2 2 2 2 2 2 2 2 2 2 2 2 2 2 2 2 2
left_child=1 6 4 5 8 10 7 -1 -2 -4 17 -10 13 16 -8 -16 24 -3 -13 -19 -15 23 -12 -9 -6
right_child=2 3 9 -5 12 -7 14 21 11 -11 22 18 -14 20 15 -17 -18 19 -20 -21 -22 -23 -24 -25 -26
leaf_value=-0.011482736052801977 0.010780931334011257 -0.0017303482354856733 0.014719103418645406 0.0089953650347888471 0.011951483072092137 -0.011940443246082094 -0.0074392863245906701 -0.020119861557203182 0.0077771453652530909 0.022036351110128798 -0.0012915220761594052 0.0031028855973008005 0.016083856638182292 0.0088006581394718241 -0.014179541463779874 -0.0081214024478686048 0.014737777710941279 -0.0036360399287548809 -0.0014215999670947593 -0.007123725398861129 0.0054561383422249213 -0.016147233098745346 0.0015307268514394917 -0.017626078325239096 0.010267783736344427
leaf_weight=39 22 22 21 20 24 24 33 34 21 34 30 22 22 26 38 20 38 21 21 29 26 20 30 22 32
leaf_count=39 22 22 21 20 24 24 33 34 21 34 30 22 22 26 38 20 38 21 21 29 26 20 30 22 32
internal_value=0.000271117 -0.00840279 0.0109942 -0.0023892 0.00920816 -0.00384876 -0.0135406 -0.0160228 0.00510361 0.0192425 -0.00237755 0.00315203 0.0113093 0.0105898 -0.0104038 -0.0120905 0.0125047 -0.00445851 0.000893253 -0.0056589 0.0071284 -0.0183525 0.000119602 -0.0191402 0.0109894
internal_weight=691 382 309 176 254 156 206 115 86 55 132 64 168 146 91 58 94 72 43 50 52 76 60 56 56
internal_count=691 382 309 176 254 156 206 115 86 55 132 64 168 146 91 58 94 72 43 50 52 76 60 56 56
is_linear=0
shrinkage=0.05


Tree=6
num_leaves=26
num_cat=0
split_feature=6 6 0 0 6 0 6 0 3 1 6 0 0 0 6 0 3 3 0 4 0 4 3 6 7
split_gain=23.2017 4.26073 1.64332 1.05574 0.795872 0.670419 0.579019 0.517246 0.439114 0.250922 0.247622 0.20445 0.164265 0.173609 0.159505 0.248528 0.124306 0.08512 0.0602137 0.0520386 0.0476545 0.043131 0.03449 0.0299874 0.0170382
threshold=3.8858543213820771 3.615035853873918 29.450000000000003 29.250000000000004 4.0862736822305754 20.150000000000002 3.4587753187681689 4.4500000000000011 1.5000000000000002 2022.5000000000002 3.7816941643524857 17.150000000000002 17.950000000000003 23.750000000000004 4.254630035690762 8.5500000000000025 1.5000000000000002 1.5000000000000002 12.950000000000001 78.500000000000014 25.650000000000002 89.500000000000014 4.5000000000000009 3.406421023164667 4.147506251813593
decision_type=2 2 2 2 2 2 2 2 2 2 2 2 2 2 2 2 2 2 2 2 2 2 2 2 2
left_child=1 6 4 5 7 10 8 -2 -1 -4 17 18 -8 -14 15 16 -6 -3 -9 -19 23 -12 -18 -10 -17
right_child=2 3 9 -5 14 -7 12 11 20 -11 21 -13 13 -15 -16 24 22 19 -20 -21 -22 -23 -24 -25 -26
leaf_value=-0.010908599212192574 0.010612348173009723 -0.0016438307743307881 0.013983148478326345 0.0085455967858433721 0.015578455647284335 -0.011343421103083529 -0.007067322064628543 0.004064577766694129 -0.019113868694095051 0.020934533897568199 -0.0012269460154736105 0.00035321325807261374 -0.013470564282646307 -0.0077153322473168381 0.015397935857375464 0.0065476959571242332 0.0098568854577563425 -0.0068647301359171121 0.0075554389312552919 -0.0036282569574921028 -0.015339871440082789 0.0014541905481989187 0.0125238770280372 -0.016744774512269283 0.0085641094382894658
leaf_weight=39 38 22 21 20 22 24 33 30 34 34 30 31 38 20 21 20 27 27 21 23 20 30 22 22 22
leaf_count=39 38 22 21 20 22 24 33 30 34 34 30 31 38 20 21 20 27 27 21 23 20 30 22 22 22
internal_value=0.000257562 -0.00798265 0.0104445 -0.00226974 0.00874775 -0.00365632 -0.0128636 0.00579017 -0.0152216 0.0182804 -0.00225867 0.0035555 -0.00988362 -0.011486 0.0113963 0.0106527 0.0124562 -0.00423558 0.00550199 -0.00537595 -0.0174349 0.000113622 0.0110543 -0.0181832 0.00760391
internal_weight=691 382 309 176 254 156 206 120 115 55 132 82 91 58 134 113 71 72 51 50 76 60 49 56 42
internal_count=691 382 309 176 254 156 206 120 115 55 132 82 91 58 134 113 71 72 51 50 76 60 49 56 42
is_linear=0
shrinkage=0.05


Tree=7
num_leaves=28
num_cat=0
split_feature=6 6 0 0 6 0 6 3 0 8 6 6 0 7 7 0 6 8 0 6 4 3 7 8 4 5 0
split_gain=20.9395 3.84531 1.4831 0.952808 0.72084 0.605053 0.524971 0.414395 0.310442 0.23993 0.223479 0.193002 0.221626 0.189566 0.1476 0.262592 0.0912596 0.115916 0.0822842 0.123807 0.0778324 0.0768208 0.071253 0.0495534 0.0389257 0.0332388 0.0216428
threshold=3.8858543213820771 3.615035853873918 29.450000000000003 29.250000000000004 4.0552800939088582 20.150000000000002 3.4792099993129395 1.0000000180025095e-35 4.4500000000000011 3.9479269078251682 3.7816941643524857 4.1524112447489392 9.6500000000000004 4.2195696974941574 3.5189849597077982 21.050000000000004 3.3662465356506925 3.4748732527344495 7.8500000000000005 4.2319180735034481 223.50000000000003 1.5000000000000002 4.0882971493253448 3.692106483249761 89.500000000000014 6.5000000000000009 24.350000000000005
decision_type=2 2 2 2 2 2 2 2 2 2 2 2 2 2 2 2 2 2 2 2 2 2 2 2 2 2 2
left_child=1 6 4 5 8 10 7 -1 -2 -10 21 12 22 -4 -8 -16 26 -18 -13 -20 -11 -3 -6 -23 -12 -24 -9
right_child=2 3 13 -5 11 -7 14 16 9 20 24 18 -14 -15 15 -17 17 -19 19 -21 -22 23 25 -25 -26 -27 -28
leaf_value=-0.0079715230586853893 0.0097112669567154218 -0.0015616392886096781 0.014586911877167636 0.008118316991021857 0.012248991630398311 -0.010776250112879401 -0.0054283613582984322 -0.01826641969382763 0.0072069324641710238 0.0026704241987317804 -0.0011655987136570426 0.014103342878121523 0.0046894606249406933 0.020466491866570253 -0.0075932917464524505 -0.014470728972683783 -0.012450254542960061 -0.016882106333971022 0.0081188708988272334 0.01355439316947013 -0.0015944421442691239 -0.0032574133466931974 0.010260662922392721 -0.0064466229607832845 0.0013814809662289918 0.0075093140204747517 -0.016039358861744405
leaf_weight=22 22 22 29 20 26 24 21 24 21 23 30 31 25 26 35 23 36 25 22 20 20 21 23 29 30 21 20
leaf_count=22 22 22 29 20 26 24 21 24 21 23 30 31 25 26 35 23 36 25 22 20 20 21 23 29 30 21 20
internal_value=0.000244683 -0.00758352 0.00992227 -0.00215626 0.00831036 -0.00347351 -0.0122204 -0.0142112 0.00458749 0.0028262 -0.00214574 0.0102161 0.00873054 0.0173663 -0.0090201 -0.0103206 -0.0155185 -0.0142666 0.0121494 0.0107072 0.000686765 -0.0040238 0.0101738 -0.00510715 0.000107941 0.00894752 -0.0172541
internal_weight=691 382 309 176 254 156 206 127 86 64 132 168 95 55 79 58 105 61 73 42 43 72 70 50 60 44 44
internal_count=691 382 309 176 254 156 206 127 86 64 132 168 95 55 79 58 105 61 73 42 43 72 70 50 60 44 44
is_linear=0
shrinkage=0.05


Tree=8
num_leaves=29
num_cat=0
split_feature=6 6 0 6 6 0 0 3 0 0 1 8 0 3 6 0 6 3 3 3 8 0 6 4 6 8 8 0
split_gain=18.8979 3.4831 1.3385 0.837171 0.65398 0.581693 0.423684 0.344212 0.226709 0.214619 0.211301 0.185343 0.274444 0.142162 0.132754 0.204432 0.12458 0.10804 0.101136 0.0651035 0.0603612 0.0420343 0.0380936 0.0314209 0.0290466 0.0286428 0.0210471 0.0186324
threshold=3.8858543213820771 3.6908304519053781 29.450000000000003 3.5177171103136224 4.0862736822305754 27.850000000000005 4.4500000000000011 1.5000000000000002 16.250000000000004 20.150000000000002 2022.5000000000002 3.9436567511220288 17.350000000000005 1.5000000000000002 4.254630035690762 8.4500000000000011 3.4587753187681689 1.5000000000000002 3.5000000000000004 1.0000000180025095e-35 3.7168471229872941 25.650000000000002 4.0276359373868571 36.500000000000007 3.7993988475785563 3.458632537487643 4.0971102309925582 15.750000000000002
decision_type=2 2 2 2 2 2 2 2 2 2 2 2 2 2 2 2 2 2 2 2 2 2 2 2 2 2 2 2
left_child=1 3 4 7 6 8 -2 19 13 20 -4 -8 22 -3 15 17 21 -6 -15 -1 27 25 -13 -19 -20 -9 -17 -5
right_child=2 5 10 9 14 -7 11 16 -10 -11 -12 12 -14 18 -16 26 -18 23 24 -21 -22 -23 -24 -25 -26 -27 -28 -29
leaf_value=-0.0075729468138888483 0.0095781520499210616 0.0020568629631910612 0.012554645644766944 -0.0054080222733318807 0.014306803349228132 0.0071882666856981818 0.0071170366707850588 -0.015424994503458342 -0.0067503230751580785 -0.010263842292816232 0.018933654017746451 0.002600085455342196 -0.0030303509375517023 -0.0048373172505913921 0.013946398292180329 0.0080985448722328459 -0.011642783433975032 0.011520554311573505 -0.002049296477343887 -0.011377494628338711 -0.0075472411699593067 -0.013807345833629371 0.0056860864139162007 0.0089257405804736272 0.00061317398678511386 -0.01769237440939133 0.0059091760129060438 -0.0032993788155727087
leaf_weight=22 38 27 21 22 21 20 22 30 21 38 34 20 20 24 21 21 24 20 21 23 24 20 20 28 20 26 23 20
leaf_count=22 38 27 21 22 21 20 22 30 21 38 34 20 20 24 21 21 24 20 21 23 24 20 20 28 20 26 23 20
internal_value=0.000232449 -0.00720435 0.00942616 -0.0106937 0.00789484 -0.000671605 0.00521384 -0.0131491 -0.00206273 -0.00727042 0.016498 0.00319136 0.00175194 -0.00099274 0.0102957 0.0096173 -0.0147833 0.0113156 -0.0022595 -0.00951749 -0.00554694 -0.015775 0.00414309 0.0100069 -0.00075053 -0.0164777 0.0069541 -0.00440391
internal_weight=691 382 309 249 254 133 120 145 113 104 55 82 60 92 134 113 100 69 65 45 66 76 40 48 41 56 44 42
internal_count=691 382 309 249 254 133 120 145 113 104 55 82 60 92 134 113 100 69 65 45 66 76 40 48 41 56 44 42
is_linear=0
shrinkage=0.05


Tree=9
num_leaves=27
num_cat=0
split_feature=6 6 0 0 0 6 3 0 3 8 2 1 6 6 0 7 4 3 0 8 7 0 6 0 4 8
split_gain=17.0554 3.14559 1.20799 0.891662 0.624203 0.591819 0.404261 0.400911 0.335515 0.255605 0.206606 0.190699 0.179791 0.171618 0.227988 0.164402 0.150534 0.078619 0.111935 0.0611206 0.0516627 0.0478538 0.0412263 0.0329518 0.0250634 0.018267
threshold=3.8858543213820771 3.5658170432029705 29.450000000000003 29.250000000000004 20.150000000000002 4.0511035181468289 1.0000000180025095e-35 26.650000000000002 1.0000000180025095e-35 3.9479269078251682 9.5000000000000018 2022.5000000000002 3.4900458577039162 4.1524112447489392 11.15 3.7417876345013936 103.50000000000001 4.5000000000000009 8.0500000000000025 3.7018657295736843 4.0882971493253448 20.950000000000003 3.398052539516438 24.350000000000005 44.500000000000007 3.8032633206990885
decision_type=2 2 2 2 2 2 2 2 2 2 2 2 2 2 2 2 2 2 2 2 2 2 2 2 2 2
left_child=1 7 5 4 6 9 -3 8 -1 -2 15 -4 21 14 20 19 -11 18 -15 -8 -7 22 -10 -23 -22 -17
right_child=2 3 11 -5 -6 13 10 -9 12 16 -12 -13 -14 17 -16 25 -18 -19 -20 -21 24 23 -24 -25 -26 -27
leaf_value=-0.0069564857830814817 0.007448559993645177 0.0041240219669860037 0.011926913367850442 0.0074402483226731417 -0.0099048677641390415 0.010597205582645632 -0.0049975528156444918 -0.0051853275347855839 -0.014804352252256304 0.0047732637523123156 -0.00014051973783150767 0.017986971326172354 -0.010405377958502089 0.01266093192283403 0.0030312289809808139 -0.0011132807238027453 -0.00079849018861919091 0.013576781749725342 0.0079654219500177228 -0.0084435084496032112 0.0089684175061328069 -0.016529790605559494 -0.011632417365908624 -0.014149707441146559 0.0066833478709061936 -0.0032502765679964796
leaf_weight=23 32 21 21 20 33 31 31 21 21 22 36 34 35 22 20 20 27 21 30 22 28 33 20 26 21 20
leaf_count=23 32 21 21 20 33 31 31 21 21 22 36 34 35 22 20 20 27 21 30 22 28 33 20 26 21 20
internal_value=0.000220827 -0.00684413 0.00895485 -0.00258356 -0.00367906 0.0075001 -0.00230938 -0.0116759 -0.0125386 0.00397292 -0.00335668 0.0156731 -0.0134897 0.00915156 0.00780604 -0.00460164 0.00170311 0.0109947 0.00995198 -0.00642795 0.00899974 -0.0145692 -0.0132571 -0.0154809 0.0079891 -0.00218178
internal_weight=691 382 309 203 183 254 150 179 158 81 129 55 135 173 100 93 49 73 52 53 80 100 41 59 49 40
internal_count=691 382 309 203 183 254 150 179 158 81 129 55 135 173 100 93 49 73 52 53 80 100 41 59 49 40
is_linear=0
shrinkage=0.05


Tree=10
num_leaves=28
num_cat=0
split_feature=6 6 0 6 3 6 0 0 0 0 3 6 0 0 3 3 3 4 7 0 6 7 3 7 7 3 4
split_gain=14.8613 3.21104 1.25021 0.681434 0.566197 0.532245 0.368187 0.237387 0.233718 0.198702 0.255089 0.189106 0.214736 0.188024 0.132318 0.11133 0.104924 0.100045 0.083771 0.0791 0.0781467 0.0743026 0.0642359 0.0537545 0.0493452 0.0164625 0.0101599
threshold=3.8858543213820771 3.6509986408140684 29.350000000000005 4.0092050903968461 1.0000000180025095e-35 3.5075392325949037 26.250000000000004 18.650000000000002 17.150000000000002 7.5500000000000007 4.5000000000000009 3.3583957531381583 25.250000000000004 18.350000000000005 5.5000000000000009 1.5000000000000002 2.5000000000000004 106.50000000000001 4.2195696974941574 20.550000000000004 3.7883548056513567 3.6329209961037936 4.5000000000000009 3.9381017735958688 3.559520981342025 3.5000000000000004 46.500000000000007
decision_type=2 2 2 2 2 2 2 2 2 2 2 2 2 2 2 2 2 2 2 2 2 2 2 2 2 2 2
left_child=1 5 3 8 -3 11 7 14 23 15 19 25 16 21 17 -5 -13 20 -4 -11 -6 -7 26 -2 -15 -1 -17
right_child=2 4 18 9 6 13 -8 -9 -10 10 -12 12 -14 24 -16 22 -18 -19 -20 -21 -22 -23 -24 -25 -26 -27 -28
leaf_value=-0.015324063985436051 0.0064211273996625101 0.0058113951049745087 0.012747557538336722 0.012360089570283891 -0.0060835478718217935 -0.0027381716336569062 0.0040204070135951044 -0.0081342038388053581 -0.0017372799389388249 0.0062441670642185369 0.010807726785540581 -0.0098239331578450478 -0.0066003904611837546 -0.0076828488707542421 0.0012363424280747064 0.0082984554022550588 -0.01379521661079847 -0.0010201850548850523 0.016431023632035111 0.0025776250384903204 -0.0023526125252246858 -0.0069052078295499088 0.010574589024430939 0.0027552530192770062 -0.011195157463662328 -0.013503707329864088 0.0067413711624050689
leaf_weight=27 20 25 29 30 32 23 20 21 23 38 25 29 24 20 21 20 39 34 33 24 25 20 28 20 20 23 22
leaf_count=27 20 25 29 30 32 23 20 21 23 38 25 29 24 20 21 20 39 34 33 24 25 20 28 20 20 23 22
internal_value=0.000159926 -0.00618271 0.00835249 0.0067763 -0.00116482 -0.0101524 -0.00230472 -0.00325587 0.00227889 0.00829147 0.00654407 -0.0120116 -0.0106665 -0.00697159 -0.00234118 0.0098117 -0.0121016 -0.00316676 0.0147081 0.00482486 -0.00444717 -0.00467633 0.00871954 0.00458819 -0.009439 -0.0144867 0.00748284
internal_weight=715 403 312 250 178 225 153 133 63 187 87 142 92 83 112 100 68 91 62 62 57 43 70 40 40 50 42
internal_count=715 403 312 250 178 225 153 133 63 187 87 142 92 83 112 100 68 91 62 62 57 43 70 40 40 50 42
is_linear=0
shrinkage=0.05


Tree=11
num_leaves=27
num_cat=0
split_feature=6 6 0 6 3 6 0 0 3 0 0 3 0 3 3 3 4 0 6 3 6 3 4 4 0 4
split_gain=13.4123 2.89796 1.12831 0.614994 0.510993 0.48298 0.338111 0.226659 0.214068 0.210931 0.179329 0.230217 0.178112 0.134111 0.12128 0.100476 0.0829419 0.0713878 0.0641003 0.0601716 0.0591693 0.0579729 0.0482572 0.0471356 0.0200133 0.00916927
threshold=3.8858543213820771 3.6509986408140684 29.350000000000005 4.0092050903968461 1.0000000180025095e-35 3.4587753187681689 24.050000000000004 17.850000000000005 1.5000000000000002 17.150000000000002 7.5500000000000007 4.5000000000000009 18.450000000000003 1.5000000000000002 5.5000000000000009 1.5000000000000002 88.500000000000014 20.550000000000004 4.3294435489412697 4.5000000000000009 3.406421023164667 4.5000000000000009 46.500000000000007 307.50000000000006 22.150000000000002 46.500000000000007
decision_type=2 2 2 2 2 2 2 2 2 2 2 2 2 2 2 2 2 2 2 2 2 2 2 2 2 2
left_child=1 5 3 9 -3 13 7 14 -7 23 15 17 -10 -1 16 -5 22 -12 -4 20 -15 25 -6 -2 -14 -17
right_child=2 4 18 10 6 8 -8 -9 12 -11 11 -13 24 19 -16 21 -18 -19 -20 -21 -22 -23 -24 -25 -26 -27
leaf_value=-0.0092068598246467966 0.0026423962553963065 0.0055208253748714924 0.012465591649665979 0.011742085069417955 -0.0027040935485907226 -0.0035135342322033026 0.0033985827523081201 -0.0078039221488738391 -0.0058726078611524672 -0.0016504159521149551 0.0059319587546939915 0.010267340429127218 -0.011832151832502514 -0.015388439881304901 0.0011745253134341467 0.007883532680571079 -0.0012643905998383827 0.0024487436312483624 0.015687698845205638 -0.0112143972726313 -0.011974563161757859 0.010045859696609635 -0.0058207601388588692 0.006075165368383751 -0.0096492498414590955 0.0064043027877976949
leaf_weight=35 20 25 33 30 23 29 23 22 34 23 38 25 21 30 21 20 37 24 29 33 22 28 27 20 21 22
leaf_count=35 20 25 33 30 23 29 23 22 34 23 38 25 21 30 21 20 37 24 29 33 22 28 27 20 21 22
internal_value=0.000151929 -0.00587357 0.00793487 0.00643749 -0.00110657 -0.0096448 -0.00218948 -0.00317814 -0.00716829 0.00216495 0.0078769 0.00621687 -0.00856287 -0.0118117 -0.00223585 0.00932112 -0.00305905 0.00458362 0.0139727 -0.0128843 -0.0139441 0.00828356 -0.00438709 0.00435878 -0.0107407 0.0071087
internal_weight=715 403 312 250 178 225 153 130 105 63 187 87 76 120 108 100 87 62 62 85 52 70 50 40 42 42
internal_count=715 403 312 250 178 225 153 130 105 63 187 87 76 120 108 100 87 62 62 85 52 70 50 40 42 42
is_linear=0
shrinkage=0.05


Tree=12
num_leaves=26
num_cat=0
split_feature=6 6 0 6 0 6 0 2 0 0 0 8 7 6 7 4 7 6 4 0 7 4 7 6 4
split_gain=12.1046 2.61541 1.02077 0.564166 0.438047 0.43589 0.351613 0.194459 0.184571 0.151276 0.148336 0.183038 0.146633 0.124892 0.110636 0.0972356 0.0903599 0.0722995 0.0677915 0.0484899 0.0424111 0.0388987 0.0381162 0.024745 0.0118454
threshold=3.8858543213820771 3.6509986408140684 29.450000000000003 4.0092050903968461 28.700000000000006 3.4587753187681689 18.650000000000002 9.5000000000000018 18.450000000000003 7.5500000000000007 26.050000000000004 4.1153663253924506 3.5288585468555786 3.3583957531381583 3.4010252622345507 89.500000000000014 4.2195696974941574 4.1312776397389674 46.500000000000007 11.15 3.6329209961037936 147.50000000000003 4.0935529644947835 3.7271289154957246 153.50000000000003
decision_type=2 2 2 2 2 2 2 2 2 2 2 2 2 2 2 2 2 2 2 2 2 2 2 2 2
left_child=1 5 3 7 6 13 15 -2 20 17 11 -11 -10 24 -15 18 -4 22 -3 -17 -7 -16 -5 -20 -1
right_child=2 4 16 9 -6 8 -8 -9 12 10 -12 -13 -14 14 21 19 -18 -19 23 -21 -22 -23 -24 -25 -26
leaf_value=-0.01403410846278781 -0.00085676636132120626 -0.00038935336849785278 0.011470233918777828 0.00895335478708148 0.0057307954877614982 -0.0032693652103521994 -0.0071504882316932921 0.0047053051175845956 -0.005413193162530661 0.0068984703991461453 0.0090500372212513214 0.0013603057749569415 -0.010670488545050224 -0.0068214911801208339 -0.012329110451813403 0.0023093697659742948 0.015384265010555585 0.010770721665837549 -0.0045260179777291019 -0.00071590644117720706 -0.0062840100377798084 -0.0094628105172887451 0.0065463807899504905 -0.0020959862414747475 -0.012474839916003162
leaf_weight=21 30 35 29 38 21 28 27 33 21 37 28 25 36 21 29 26 30 33 22 27 20 20 29 20 29
leaf_count=21 30 35 29 38 21 28 27 33 21 37 28 25 36 21 29 26 30 33 22 27 20 20 29 20 29
internal_value=0.000144333 -0.00557989 0.00753813 0.00615704 -0.00105125 -0.00916256 -0.0019584 0.0020567 -0.00680988 0.00751662 0.00602947 0.00466534 -0.00873359 -0.0112212 -0.00985788 -0.000880041 0.0134604 0.00885506 -0.00201454 0.000768191 -0.00452547 -0.0111592 0.00791153 -0.00336886 -0.0131297
internal_weight=715 403 312 253 178 225 157 63 105 190 90 62 57 120 70 130 59 100 77 53 48 49 67 42 50
internal_count=715 403 312 253 178 225 157 63 105 190 90 62 57 120 70 130 59 100 77 53 48 49 67 42 50
is_linear=0
shrinkage=0.05


Tree=13
num_leaves=27
num_cat=0
split_feature=6 6 0 6 3 6 0 0 0 0 3 0 3 0 3 0 3 3 3 7 4 3 7 8 4 4
split_gain=10.9244 2.36041 0.929874 0.504765 0.460628 0.405659 0.28262 0.248656 0.184385 0.173051 0.206843 0.16063 0.157804 0.145824 0.1238 0.118794 0.108322 0.090273 0.085099 0.0824483 0.0685016 0.0519309 0.045002 0.0409543 0.039172 0.00801803
threshold=3.8858543213820771 3.6509986408140684 28.700000000000006 4.0092050903968461 1.0000000180025095e-35 3.5177171103136224 24.050000000000004 17.150000000000002 17.850000000000005 7.5500000000000007 4.5000000000000009 26.150000000000002 1.5000000000000002 20.150000000000002 1.5000000000000002 20.550000000000004 5.5000000000000009 1.5000000000000002 4.5000000000000009 4.2195696974941574 88.500000000000014 4.5000000000000009 3.9381017735958688 3.4639971820737459 46.500000000000007 46.500000000000007
decision_type=2 2 2 2 2 2 2 2 2 2 2 2 2 2 2 2 2 2 2 2 2 2 2 2 2 2
left_child=1 5 3 7 -3 11 8 22 16 17 15 14 -7 -14 -1 -11 20 -5 23 -4 24 25 -2 -16 -6 -19
right_child=2 4 19 9 6 12 -8 -9 -10 10 -12 -13 13 -15 18 -17 -18 21 -20 -21 -22 -23 -24 -25 -26 -27
leaf_value=-0.0084453869504587994 0.005680000456050039 0.0052936360929161314 0.01047851417608785 0.010707070392866931 -0.0025494211171146319 -0.0024353414676928273 0.0030821277355046377 -0.002825192065065494 -0.0071029020325196063 0.0053997431195488103 0.009237404097802937 -0.0063287507979442707 -0.0052710813483880722 -0.010570355664406506 -0.011921677571432344 0.00071386025575477454 0.0011422011252891805 0.0070414456259459265 -0.010034991430916957 0.013938522406129373 -0.0012278615386930069 0.0090967783405046382 0.0023258249368518593 -0.014683192521333694 -0.0053574219415033313 0.0056581910495217685
leaf_weight=35 20 25 33 30 23 24 23 20 22 38 24 22 34 21 29 21 21 20 35 36 37 28 20 25 27 22
leaf_count=35 20 25 33 30 23 24 23 20 22 38 24 22 34 21 29 21 21 20 35 36 37 28 20 25 27 22
internal_value=0.000137116 -0.0053009 0.00716122 0.00570668 -0.000998684 -0.00870443 -0.00202684 0.00172688 -0.00293074 0.00701153 0.00532384 -0.0102661 -0.00581826 -0.00729444 -0.0109647 0.00373189 -0.00208085 0.00841231 -0.0119554 0.0122837 -0.00285883 0.00742884 0.00400291 -0.0132002 -0.00406574 0.00631688
internal_weight=715 403 312 243 178 225 153 60 130 183 83 146 79 55 124 59 108 100 89 69 87 70 40 54 50 42
internal_count=715 403 312 243 178 225 153 60 130 183 83 146 79 55 124 59 108 100 89 69 87 70 40 54 50 42
is_linear=0
shrinkage=0.05


Tree=14
num_leaves=28
num_cat=0
split_feature=6 6 0 6 3 6 0 0 0 3 6 0 0 0 0 8 3 3 3 4 8 6 3 4 3 0 4
split_gain=9.85927 2.13027 0.83999 0.462728 0.415717 0.367648 0.255064 0.20488 0.166407 0.153087 0.137488 0.148643 0.127298 0.125691 0.164743 0.155309 0.0977609 0.0892016 0.0760519 0.0618227 0.0472797 0.0463202 0.0424082 0.0353528 0.0153466 0.00701434 0.00694239
threshold=3.8858543213820771 3.6509986408140684 29.450000000000003 4.0207360407576305 1.0000000180025095e-35 3.4967881620813488 24.050000000000004 18.450000000000003 17.850000000000005 1.5000000000000002 3.3583957531381583 25.250000000000004 18.650000000000002 7.5500000000000007 26.050000000000004 4.1252057053405062 5.5000000000000009 2.5000000000000004 1.5000000000000002 88.500000000000014 3.9479269078251682 4.3294435489412697 4.5000000000000009 46.500000000000007 3.5000000000000004 10.250000000000002 50.500000000000007
decision_type=2 2 2 2 2 2 2 2 2 2 2 2 2 2 2 2 2 2 2 2 2 2 2 2 2 2 2
left_child=1 5 3 7 -3 10 8 20 16 -7 24 17 -11 18 15 25 19 -12 -5 23 -2 -4 26 -6 -1 -15 -20
right_child=2 4 21 13 6 9 -8 -9 -10 12 11 -13 -14 14 -16 -17 -18 -19 22 -21 -22 -23 -24 -25 -26 -27 -28
leaf_value=-0.012765473706854713 0.005574248234430949 0.0050289542656391864 0.010888632267597132 0.01017171688998739 -0.00242195007107828 -0.0024950473839103673 0.0029280213801109274 -0.0022284546250011771 -0.0067477568603036085 -0.0047852964916576951 -0.0077451942089412891 -0.0052189068797894797 -0.0093914176764277116 0.0051406188402324917 0.0087069575872091159 0.00040640371385961774 0.0010850910984334492 -0.011464461723440574 0.0067635346576571474 -0.0011664684566140577 0.0024109779546658203 0.013700689927295404 0.0086419395204367384 -0.005089550872367842 -0.01100789313407048 0.0064648486999794837 0.0054461138928309089
leaf_weight=27 21 25 32 30 23 26 23 20 22 30 28 23 30 20 27 20 21 38 20 37 27 27 28 27 23 20 20
leaf_count=27 21 25 32 30 23 26 23 20 22 30 28 23 30 20 27 20 21 38 20 37 27 27 28 27 23 20 20
internal_value=0.00013026 -0.00503585 0.00680316 0.00555032 -0.00094875 -0.00826921 -0.0019255 0.00202333 -0.0027842 -0.00569968 -0.00985899 -0.00868034 -0.00708836 0.00684672 0.00546351 0.00400396 -0.00197681 -0.00988659 0.00807468 -0.00271589 0.00379491 0.0121755 0.00714952 -0.00386245 -0.011957 0.00580273 0.00610482
internal_weight=715 403 312 253 178 225 153 68 130 86 139 89 60 185 87 60 108 66 98 87 48 59 68 50 50 40 40
internal_count=715 403 312 253 178 225 153 68 130 86 139 89 60 185 87 60 108 66 98 87 48 59 68 50 50 40 40
is_linear=0
shrinkage=0.05


Tree=15
num_leaves=25
num_cat=0
split_feature=6 6 6 3 0 3 6 0 3 1 4 0 0 0 3 7 0 6 2 7 6 3 4 7
split_gain=8.63946 1.12576 1.09173 0.458603 0.439611 0.390196 0.366031 0.235933 0.222829 0.193662 0.194939 0.170258 0.147934 0.245569 0.118546 0.111856 0.0607521 0.0716131 0.0512768 0.0444886 0.0368627 0.0337323 0.0439768 0.0117351
threshold=3.8049269985376646 3.6290389780916636 4.0813486532770353 1.0000000180025095e-35 26.850000000000005 1.0000000180025095e-35 4.3143888028937898 20.850000000000005 1.0000000180025095e-35 2022.5000000000002 191.50000000000003 9.6500000000000004 28.700000000000006 7.5500000000000007 5.5000000000000009 3.9638948177940878 7.8500000000000005 3.7043488064510206 6.5000000000000009 3.5405769032225174 4.1217276581558728 4.5000000000000009 138.50000000000003 3.4026513808101
decision_type=2 2 2 2 2 2 2 2 2 2 2 2 2 2 2 2 2 2 2 2 2 2 2 2
left_child=1 4 3 -2 5 -1 12 19 -3 10 -5 -11 13 20 16 -13 -10 -18 -15 23 -4 22 -9 -7
right_child=2 8 6 9 -6 7 -8 21 14 11 -12 15 -14 18 -16 -17 17 -19 -20 -21 -22 -23 -24 -25
leaf_value=-0.002880831640314959 0.0093665511897162781 0.0026683972507089496 0.0069035164770428793 -0.0043145509048675501 -0.0013040917520854801 -0.0080659567844122652 0.012826837455803479 -0.010721263560381803 -0.0018378409539134459 0.0057856274940269563 0.0016881183678235272 0.0034525526346017919 0.010662633681669831 0.0050765351773324335 0.00014625871629940103 -0.001127069068994994 -0.0062750427819350182 -0.00292341288101549 0.0015784613322466614 -0.0064422718108151896 0.0093197933937373915 -0.010277640564298189 -0.013625236484222114 -0.0097787837125360971
leaf_weight=23 23 20 27 21 21 20 37 22 26 38 38 30 25 22 23 24 34 30 20 33 38 27 32 20
leaf_count=23 23 20 27 21 21 20 37 22 26 38 38 30 25 22 23 24 34 30 20 33 38 27 32 20
internal_value=8.45844e-06 -0.00575412 0.00556943 0.00278939 -0.00814397 -0.00895548 0.00843171 -0.00986274 -0.00219628 0.00178757 -0.000448425 0.00322153 0.00719974 0.00639066 -0.00305729 0.00141717 -0.00387597 -0.00470397 0.00341079 -0.00780123 0.00831611 -0.0117206 -0.0124421 -0.00892237
internal_weight=674 331 343 174 198 177 169 154 133 151 59 92 132 107 113 54 90 64 42 73 65 81 54 40
internal_count=674 331 343 174 198 177 169 154 133 151 59 92 132 107 113 54 90 64 42 73 65 81 54 40
is_linear=0
shrinkage=0.05


Tree=16
num_leaves=27
num_cat=0
split_feature=6 6 6 3 0 3 6 0 3 1 8 4 0 0 6 8 6 7 2 7 8 6 3 4 2 8
split_gain=7.79712 1.016 0.98529 0.413889 0.396749 0.352152 0.330343 0.212929 0.201103 0.17478 0.246313 0.175933 0.13351 0.221626 0.119339 0.114294 0.0786624 0.064327 0.0462774 0.040151 0.0453294 0.033492 0.0304434 0.0396891 0.028431 0.0191775
threshold=3.8049269985376646 3.6290389780916636 4.0813486532770353 1.0000000180025095e-35 26.850000000000005 1.0000000180025095e-35 4.3143888028937898 20.850000000000005 1.0000000180025095e-35 2022.5000000000002 4.1073032441494393 191.50000000000003 28.700000000000006 7.5500000000000007 4.0042487083126543 3.8032633206990885 3.7069021133295226 3.9269610579678687 6.5000000000000009 3.5405769032225174 3.4272023976362402 4.1181901106200778 4.5000000000000009 138.50000000000003 5.5000000000000009 4.1094479975446436
decision_type=2 2 2 2 2 2 2 2 2 2 2 2 2 2 2 2 2 2 2 2 2 2 2 2 2 2
left_child=1 4 3 -2 5 -1 12 19 -3 11 14 -5 13 21 17 16 -10 -11 -15 20 -7 -4 23 -9 -18 -23
right_child=2 8 6 9 -6 7 -8 22 15 10 -12 -13 -14 18 -16 -17 24 -19 -20 -21 -22 25 -24 -25 -26 -27
leaf_value=-0.0027367900874789644 0.008898223642988699 0.0025349774648202586 0.006366589677560589 -0.0040988234426116666 -0.0012388871633447708 -0.0067930730711668738 0.012185495809928792 -0.010185200483961539 -0.003751017529284582 0.0049930134671740236 -0.0015543969750235027 0.0016037124003847375 0.01012950193695724 0.0048227083742279908 0.0072806322183460006 -0.0055494019699593384 -0.0017071893214489573 0.0012037238921038806 0.0014995382539927961 -0.0061201581195222607 -0.010159430387429894 0.009860760075971484 -0.0097637586019657281 -0.012943974637892097 0.0007457960391461495 0.0077214986001226038
leaf_weight=23 23 20 23 21 21 20 37 22 35 21 22 38 25 22 25 30 27 24 20 33 20 20 27 32 21 22
leaf_count=23 23 20 23 21 21 20 37 22 35 21 22 38 25 22 25 30 27 24 20 33 20 20 27 32 21 22
internal_value=8.03552e-06 -0.00546641 0.00529096 0.00264992 -0.00773677 -0.00850771 0.00801012 -0.0093696 -0.00208647 0.0016982 0.00306045 -0.000426004 0.00683975 0.00607112 0.00451084 -0.00290443 -0.00194841 0.00297206 0.00324025 -0.00741117 -0.00847625 0.0079003 -0.0111346 -0.01182 -0.000634008 0.00874019
internal_weight=674 331 343 174 198 177 169 154 133 151 92 59 132 107 70 113 83 45 42 73 40 65 81 54 48 42
internal_count=674 331 343 174 198 177 169 154 133 151 92 59 132 107 70 113 83 45 42 73 40 65 81 54 48 42
is_linear=0
shrinkage=0.05


Tree=17
num_leaves=27
num_cat=0
split_feature=7 6 6 3 3 6 3 0 0 3 0 0 0 6 3 6 0 7 7 7 1 4 4 7 7 7
split_gain=7.07095 1.32212 0.568457 0.387369 0.352365 0.272978 0.214911 0.207576 0.254515 0.194894 0.264691 0.193104 0.31415 0.130579 0.0914149 0.0827962 0.0588801 0.0570414 0.0525003 0.0372113 0.0460339 0.0335079 0.0283623 0.0281492 0.0270717 0.0101573
threshold=3.8928114708039758 3.6448444543725627 4.3143888028937898 1.0000000180025095e-35 1.0000000180025095e-35 3.9566669086172808 1.0000000180025095e-35 26.350000000000005 20.850000000000005 4.5000000000000009 18.650000000000002 28.700000000000006 23.650000000000002 3.7816941643524857 5.5000000000000009 3.792659331669197 11.850000000000003 3.5405769032225174 3.9550944544447773 3.54837401213842 2022.5000000000002 18.500000000000004 46.500000000000007 4.0790396918601308 3.6260830795685046 3.4026513808101
decision_type=2 2 2 2 2 2 2 2 2 2 2 2 2 2 2 2 2 2 2 2 2 2 2 2 2 2
left_child=1 3 5 -1 -3 18 -7 8 17 10 15 12 14 -11 16 -6 21 25 -2 20 -10 -8 -23 -24 -19 -5
right_child=2 4 -4 7 9 6 11 -9 19 13 -12 -13 -14 -15 -16 -17 -18 24 -20 -21 -22 22 23 -25 -26 -27
leaf_value=-0.0020649288097047249 0.0030414139060303568 0.0050553852540906521 0.011576221128170555 -0.0072556780185550453 -0.0034358665939623447 0.0091848233197298328 0.0033902973497540439 -0.0033588454471014089 -0.011560519815733035 -0.0016528876121069684 -0.0079925774070231815 0.0088627650386317539 -0.0015680425032041968 0.0036775028036208825 0.0080942773260176178 -8.602160440724609e-05 0.0021104518452193586 -0.0041447647869409547 -0.00053805089333937284 -0.012280873998999596 -0.0086001757403899887 0.0070233391937411698 0.0062911483947010269 0.0038503488491254826 -0.0066835942256840922 -0.0088492001779377476
leaf_weight=32 20 20 37 20 39 36 22 21 24 27 23 27 20 20 22 35 20 21 21 25 29 24 21 27 21 20
leaf_count=32 20 20 37 20 39 36 22 21 24 27 23 27 20 20 22 35 20 21 21 25 29 24 21 27 21 20
internal_value=7.63376e-06 -0.00453792 0.00577758 -0.00713608 -0.00116347 0.00495238 0.00565338 -0.00803264 -0.00864608 -0.0020272 -0.00330762 0.00495867 0.00428296 0.000615364 0.00514341 -0.00185148 0.00457394 -0.00670114 0.00120803 -0.0106908 -0.00994071 0.00509809 0.00561991 0.0049182 -0.00541418 -0.00805244
internal_weight=674 377 297 213 164 260 219 181 160 144 97 183 156 47 136 74 114 82 41 78 53 94 72 48 42 40
internal_count=674 377 297 213 164 260 219 181 160 144 97 183 156 47 136 74 114 82 41 78 53 94 72 48 42 40
is_linear=0
shrinkage=0.05


Tree=18
num_leaves=26
num_cat=0
split_feature=7 6 6 8 3 3 6 3 2 4 3 6 8 4 4 7 3 4 8 6 2 7 3 7 3
split_gain=6.38154 1.19333 0.513033 0.388268 0.316299 0.25515 0.253216 0.165669 0.16808 0.362841 0.135446 0.100301 0.0975064 0.0886061 0.0803846 0.0616366 0.0583151 0.0581574 0.0562054 0.0628941 0.053043 0.0456846 0.0307778 0.0443322 0.0661655
threshold=3.8928114708039758 3.6290389780916636 4.3143888028937898 3.6054449941680793 1.0000000180025095e-35 1.0000000180025095e-35 4.0755926987627973 5.5000000000000009 9.5000000000000018 100.50000000000001 1.5000000000000002 3.5391951831099862 4.0958566256632478 233.50000000000003 217.50000000000003 3.7417876345013936 5.5000000000000009 101.50000000000001 3.4639971820737459 3.3662465356506925 7.5000000000000009 3.6034783719844508 1.5000000000000002 4.1735693462112593 3.5000000000000004
decision_type=2 2 2 2 2 2 2 2 2 2 2 2 2 2 2 2 2 2 2 2 2 2 2 2 2
left_child=1 4 6 -3 -1 -5 10 8 9 15 12 16 -2 17 22 -7 18 -12 19 -6 -20 -13 -8 24 -24
right_child=2 3 -4 5 11 7 14 -9 -10 -11 13 21 -14 -15 -16 -17 -18 -19 20 -21 -22 -23 23 -25 -26
leaf_value=-0.0019564752501470073 0.0029442419193219395 0.004565506230574101 0.010997409887007766 0.0027191418519412931 -0.0099678073755719455 -0.0049215237771232543 0.0080713319044341068 0.00057400352167314859 -0.00060871621000322719 -0.010753951529927907 0.0020973040325128855 -0.0042458184984634105 0.0078815087303519254 0.0044053227461214794 0.0040056185867411625 -0.0016663691214158793 -0.0061498913647873065 -0.0011581112820472892 -0.0088192593306303021 -0.0064722165371471603 -0.012169785673419635 -0.007304979418404401 0.0032205557636916641 0.0082465775543823835 0.0068865972025378142
leaf_weight=27 20 24 37 22 22 26 34 25 28 21 34 23 20 24 33 33 21 23 27 31 21 26 20 20 32
leaf_count=27 20 24 37 22 22 26 34 25 28 21 34 23 20 24 33 33 21 23 27 31 21 26 20 20 32
internal_value=7.25205e-06 -0.00431102 0.0054887 -0.00135242 -0.00698572 -0.00226875 0.00470477 -0.00309381 -0.00394284 -0.00510978 0.00303235 -0.00777981 0.00541288 0.00185678 0.00616061 -0.00310084 -0.00854724 0.000783715 -0.0090457 -0.00792322 -0.0102851 -0.00586905 0.0068315 0.00624602 0.00547658
internal_weight=674 377 297 179 198 155 260 133 108 80 121 171 40 81 139 59 122 57 101 53 48 49 106 72 52
internal_count=674 377 297 179 198 155 260 133 108 80 121 171 40 81 139 59 122 57 101 53 48 49 106 72 52
is_linear=0
shrinkage=0.05


Tree=19
num_leaves=27
num_cat=0
split_feature=7 6 6 8 3 0 3 6 0 0 6 0 0 5 1 7 6 7 1 8 0 6 0 7 8 0
split_gain=5.75934 1.08098 0.463012 0.328557 0.311074 0.254896 0.232361 0.244202 0.185164 0.221283 0.162978 0.148885 0.182305 0.0841739 0.0631908 0.0499807 0.048665 0.0334029 0.0401651 0.0283072 0.0247705 0.0251068 0.0185776 0.0124852 0.00293419 0.000303946
threshold=3.8928114708039758 3.6448444543725627 4.3143888028937898 3.5781664491438878 1.0000000180025095e-35 17.850000000000005 1.0000000180025095e-35 4.0511035181468289 26.350000000000005 20.850000000000005 3.7816941643524857 28.700000000000006 11.950000000000001 33.500000000000007 2023.5000000000002 3.8244229131588563 3.5505543852895625 3.54837401213842 2022.5000000000002 3.4748732527344495 7.5500000000000007 4.1217276581558728 8.6500000000000004 3.7417876345013936 3.7955195449751371 1.1500000000000001
decision_type=2 2 2 2 2 2 2 2 2 2 2 2 2 2 2 2 2 2 2 2 2 2 2 2 2 2
left_child=1 4 6 -3 -1 10 22 13 9 16 23 12 20 14 -8 24 19 18 -11 -6 21 25 -2 -5 -12 -9
right_child=2 3 -4 5 8 -7 7 11 -10 17 15 -13 -14 -15 -16 -17 -18 -19 -20 -21 -22 -23 -24 -25 -26 -27
leaf_value=-0.0019003868757863529 0.0090525408321991564 0.0049608648032881328 0.010447539238108171 -0.0035211760023355905 -0.0059222929349813901 -0.0058138138265348971 -0.0010932426434010268 0.0049052860937081281 -0.002833936059115721 -0.010536517885824045 0.00040334629458292127 0.0088973170866004439 0.00042631274352417043 0.0039851175129620572 0.0022659340673791511 0.0030393604470373252 -0.0045667755718836016 -0.011240662731230261 -0.0077713113727754567 -0.0083592098883607177 0.0039397721961987294 0.0069565963465720417 0.0068974549509584898 -0.0019415950820654293 -0.00044286961827310738 0.0051809424767270684
leaf_weight=32 20 20 37 29 26 32 28 20 21 24 21 22 23 27 28 20 34 25 29 22 22 30 20 22 20 20
leaf_count=32 20 20 37 29 26 32 28 20 21 24 21 22 23 27 28 20 34 25 29 22 22 30 20 22 20 20
internal_value=6.88946e-06 -0.00409547 0.00521426 -0.00104423 -0.00644478 -0.00187827 0.00446953 0.00383217 -0.00724821 -0.00782759 -0.000753831 0.00512879 0.00440785 0.00169197 0.000586346 0.000990165 -0.00601406 -0.00973412 -0.00902348 -0.00703921 0.00540323 0.00586318 0.007975 -0.00283979 -9.44196e-06 0.00504311
internal_weight=674 377 297 164 213 144 260 220 181 160 112 137 115 83 56 61 82 78 53 48 92 70 40 51 41 40
internal_count=674 377 297 164 213 144 260 220 181 160 112 137 115 83 56 61 82 78 53 48 92 70 40 51 41 40
is_linear=0
shrinkage=0.05


Tree=20
num_leaves=28
num_cat=0
split_feature=6 6 0 0 6 0 3 0 0 4 3 7 4 5 7 0 0 6 6 0 7 0 7 3 4 7 0
split_gain=5.68235 1.31176 0.529958 0.421795 0.387438 0.30029 0.209211 0.204537 0.187876 0.152654 0.141503 0.125558 0.105531 0.10039 0.0964645 0.0683189 0.0596709 0.0399048 0.0359083 0.0340956 0.0331441 0.0382464 0.0317386 0.0282392 0.027202 0.0124537 0.00768238
threshold=3.6908304519053781 4.0154893221028232 29.650000000000002 27.850000000000005 3.5075392325949037 18.750000000000004 1.0000000180025095e-35 25.650000000000002 17.350000000000005 88.500000000000014 1.0000000180025095e-35 3.5722776494555206 110.50000000000001 2.5000000000000004 4.1680378946851269 25.550000000000004 20.950000000000003 3.8872782357498972 3.3926793350742996 29.650000000000002 4.0882971493253448 4.4500000000000011 4.1086829229589403 3.5000000000000004 199.50000000000003 3.4348079630042085 13.450000000000001
decision_type=2 2 2 2 2 2 2 2 2 2 2 2 2 2 2 2 2 2 2 2 2 2 2 2 2 2 2
left_child=4 2 5 8 10 6 -2 -7 13 23 -1 -6 26 -3 20 16 18 -11 -12 -5 21 -15 -22 -8 -21 -18 -13
right_child=1 3 -4 19 11 7 9 -9 -10 17 15 12 -14 14 -16 -17 25 -19 -20 24 22 -23 -24 -25 -26 -27 -28
leaf_value=-0.0038804282620549207 0.0052071663328324969 0.0023918783796640737 0.0083325740275904531 0.0076792449202565923 -0.00087695077652045128 -0.0074490766007719303 -0.0026770076266433482 -0.00047058335871302663 0.00081649656338548225 0.00075447733263270212 -0.0091118692589754417 -0.0028879758948460225 -0.0079109522677026697 0.0078716469263391837 0.0090132948454646842 -0.0062089391854695149 -0.010884737446904184 0.0032833099186133879 -0.0062213181784110411 0.011433358880735579 0.0028927997301798312 0.0049498062425603478 0.0053535686070589651 -0.00062377799057524981 0.0089692417532205582 -0.0092739882133901132 -0.0041164053151650087
leaf_weight=20 23 24 20 21 28 21 33 21 27 39 22 20 20 21 21 27 30 26 21 21 20 24 38 34 24 20 35
leaf_count=20 23 24 20 21 28 21 33 21 27 39 22 20 20 21 21 27 30 26 21 21 20 24 38 34 24 20 35
internal_value=0.000118551 0.00339758 0.000577624 0.00593671 -0.00606168 -0.000209681 0.000806489 -0.00395983 0.00465212 3.97043e-05 -0.00777415 -0.00373405 -0.0048007 0.00535186 0.00592476 -0.0084231 -0.00906592 0.00176601 -0.0077002 0.00934283 0.00529506 0.00631333 0.00450503 -0.00163507 0.0101192 -0.0102404 -0.0036697
internal_weight=701 458 217 241 243 197 155 42 175 132 140 103 75 148 124 120 93 65 43 66 103 45 58 67 45 50 55
internal_count=701 458 217 241 243 197 155 42 175 132 140 103 75 148 124 120 93 65 43 66 103 45 58 67 45 50 55
is_linear=0
shrinkage=0.05


Tree=21
num_leaves=27
num_cat=0
split_feature=6 6 6 0 6 6 0 0 3 0 0 3 0 0 3 6 0 0 2 4 3 4 0 7 3 4
split_gain=5.13048 1.11307 0.414919 0.369839 0.326677 0.232173 0.216784 0.168763 0.127707 0.103607 0.10656 0.0949875 0.0855926 0.0667007 0.0663931 0.0636199 0.0917091 0.0785225 0.0547252 0.0499302 0.0379015 0.0323002 0.0317546 0.0290093 0.0146175 0.00605012
threshold=3.7043488064510206 4.1047782644032376 3.5075392325949037 29.650000000000002 3.8858543213820771 4.3143888028937898 17.150000000000002 18.750000000000004 1.0000000180025095e-35 29.450000000000003 8.5500000000000025 1.5000000000000002 4.4500000000000011 21.050000000000004 1.5000000000000002 3.3662465356506925 24.850000000000005 20.950000000000003 2.5000000000000004 88.500000000000014 3.5000000000000004 38.500000000000007 12.950000000000001 3.6613218665268605 3.5000000000000004 40.500000000000007
decision_type=2 2 2 2 2 2 2 2 2 2 2 2 2 2 2 2 2 2 2 2 2 2 2 2 2 2
left_child=2 3 8 4 7 9 12 14 -1 10 21 -4 20 23 -2 24 17 -17 -14 25 -6 -3 -20 -13 -10 -16
right_child=1 5 11 -5 6 -7 -8 -9 15 -11 -12 13 18 -15 19 16 -18 -19 22 -21 -22 -23 -24 -25 -26 -27
leaf_value=-0.0036864069104194639 0.0018703878722003391 0.007265826076378718 -0.001154034035280347 0.0079115710531671834 0.0068712151649853465 0.010098980326587573 -0.00059267468362425764 -0.0050833652409710342 -0.010531137650832535 0.0088177863064975975 0.0028403697551127424 -0.0025346909627842252 0.00071554767006697757 -0.0066975452770878163 -0.0014493849065426428 -0.0062075730965093327 -0.0042285303992684936 -0.0099243118117252997 0.0023976904086091301 0.00061703654956222782 0.0038950731211662062 0.0048700741880262893 0.0051504713995382187 -0.004839262634579262 -0.0086828809555457992 -0.0026645056344568731
leaf_weight=20 31 34 35 21 23 39 39 20 20 21 37 36 24 21 21 27 20 30 22 31 20 24 20 22 23 20
leaf_count=20 31 34 35 21 23 39 39 20 20 21 37 36 24 21 21 27 20 30 22 31 20 24 20 22 23 20
internal_value=0.000112623 0.00333705 -0.00556187 0.00151923 0.00102388 0.0067616 0.00260647 -0.000880361 -0.00738544 0.00563954 0.00493698 -0.00332239 0.00375111 -0.00428305 -6.42431e-05 -0.00800195 -0.00714162 -0.00816375 0.00262018 -0.000897209 0.00548696 0.00627448 0.00370854 -0.00340884 -0.00954254 -0.00204213
internal_weight=701 447 254 292 271 155 148 123 140 116 95 114 109 79 103 120 77 57 66 72 43 58 42 58 43 41
internal_count=701 447 254 292 271 155 148 123 140 116 95 114 109 79 103 120 77 57 66 72 43 58 42 58 43 41
is_linear=0
shrinkage=0.05


Tree=22
num_leaves=28
num_cat=0
split_feature=6 6 0 0 6 0 0 3 0 4 3 5 8 6 6 0 0 4 8 4 8 6 3 0 0 0 3
split_gain=4.63863 1.07883 0.435603 0.348985 0.313037 0.247436 0.18446 0.180744 0.162458 0.125921 0.115255 0.0841095 0.0831311 0.080363 0.057417 0.0827674 0.0708666 0.0484293 0.0352031 0.0611714 0.0319559 0.0318488 0.0260472 0.0246536 0.0242091 0.0168019 0.0131923
threshold=3.6908304519053781 4.0154893221028232 29.650000000000002 27.850000000000005 3.5075392325949037 18.750000000000004 25.650000000000002 1.0000000180025095e-35 17.350000000000005 88.500000000000014 1.0000000180025095e-35 2.5000000000000004 3.7168471229872941 4.1715931653424958 3.3662465356506925 24.850000000000005 20.950000000000003 135.50000000000003 3.9812435165217348 30.500000000000004 4.0481151320720672 3.8872782357498972 3.5000000000000004 30.750000000000004 18.650000000000002 6.3500000000000005 3.5000000000000004
decision_type=2 2 2 2 2 2 2 2 2 2 2 2 2 2 2 2 2 2 2 2 2 2 2 2 2 2 2
left_child=4 2 5 8 10 7 -7 -2 11 22 -1 -3 17 18 26 16 -16 24 -13 -20 -5 -11 -9 -22 -6 -21 -12
right_child=1 3 -4 20 12 6 -8 9 -10 21 14 13 -14 -15 15 -17 -18 -19 19 25 23 -23 -24 -25 -26 -27 -28
leaf_value=-0.0035020864848047495 0.0048112120519837607 0.0021451645662940184 0.0075430308072827763 0.010139067955315113 -0.0022930152168304757 -0.0069192647376829499 -0.00029212056459592924 -0.0025135939733114689 0.00063710322008571699 0.00067237071880999096 -0.010004580942913892 0.0066500675928546117 -0.0056004661569992705 0.0080462941798664957 -0.005897194478246901 -0.0040171039127744742 -0.0094280962149302164 -0.00037758247606689115 0.0064896381227299571 0.0043232624838960227 0.0064252883521839976 0.0029315679566934705 -0.00054166510241670683 0.0087602898979989383 -0.0044398217966469629 0.0026202273648232226 -0.0082487369199161949
leaf_weight=20 23 24 20 20 29 21 21 33 27 39 20 20 30 23 27 20 30 20 23 28 20 26 34 26 24 30 23
leaf_count=20 23 24 20 20 29 21 21 33 27 39 20 20 30 23 27 20 30 20 23 28 20 26 34 26 24 30 23
internal_value=0.000106992 0.00306962 0.000512246 0.00537231 -0.00547688 -0.000201539 -0.00360569 0.000720877 0.00420384 8.16674e-06 -0.00701617 0.00485453 -0.00338465 0.00537892 -0.00760185 -0.00678454 -0.00775556 -0.00247404 0.0047715 0.00430765 0.00847053 0.00157605 -0.00151291 0.00774507 -0.00326515 0.00344238 -0.00906541
internal_weight=701 458 217 241 243 197 42 155 175 132 140 148 103 124 120 77 57 73 101 81 66 65 67 46 53 58 43
internal_count=701 458 217 241 243 197 42 155 175 132 140 148 103 124 120 77 57 73 101 81 66 65 67 46 53 58 43
is_linear=0
shrinkage=0.05


Tree=23
num_leaves=26
num_cat=0
split_feature=6 6 0 0 6 0 0 3 0 4 3 3 7 0 8 0 8 8 6 7 3 0 0 8 3
split_gain=4.18637 0.973648 0.393132 0.314959 0.286234 0.223311 0.166475 0.163121 0.146619 0.113644 0.111536 0.0798195 0.0783392 0.0610286 0.0454601 0.0527389 0.0377374 0.0288402 0.0287435 0.0255967 0.0235076 0.0222498 0.0194196 0.0479659 0.0163139
threshold=3.6908304519053781 4.0154893221028232 29.650000000000002 27.850000000000005 3.4587753187681689 18.750000000000004 25.650000000000002 1.0000000180025095e-35 17.350000000000005 88.500000000000014 1.5000000000000002 1.5000000000000002 4.1680378946851269 20.050000000000004 3.9812435165217348 5.8500000000000005 3.6869810747837835 4.0481151320720672 3.8872782357498972 4.1118672623704624 3.5000000000000004 30.750000000000004 24.350000000000005 3.458632537487643 2.5000000000000004
decision_type=2 2 2 2 2 2 2 2 2 2 2 2 2 2 2 2 2 2 2 2 2 2 2 2 2
left_child=4 2 5 8 10 7 -7 -2 12 20 -1 -6 14 16 -3 24 -13 -5 -11 -17 -9 -19 23 -12 -16
right_child=1 3 -4 17 11 6 -8 9 -10 18 22 13 -14 -15 15 19 -18 21 -20 -21 -22 -23 -24 -25 -26
leaf_value=-0.0046399875660426918 0.004570651384394454 0.0063175642187707137 0.0071658791683148594 0.0096321145631372927 -0.0015700676051589352 -0.0065733014860944383 -0.00027751459717927947 -0.0023879142677425552 0.00060524804026095404 0.00063875218381723154 -0.0069556644128169866 -0.002075344021432102 0.0073647775263948881 -0.0059892675253961775 0.0057048776378602877 0.0014103957613070426 -0.0046729266747004457 0.0061040239245630807 0.0027849895333369769 0.003789640265749768 -0.00051458186447716266 0.0083222754622021538 -0.0069810578952832466 -0.010001829007108297 0.0040219409704958606
leaf_weight=35 23 20 20 20 36 21 21 33 27 39 24 29 22 35 24 26 27 20 26 20 34 26 29 28 36
leaf_count=35 23 20 20 20 36 21 21 33 27 39 24 29 22 35 24 26 27 20 26 20 34 26 29 28 36
internal_value=0.000101643 0.00291613 0.000486634 0.00510369 -0.00520304 -0.000191462 -0.00342541 0.000684833 0.00399365 7.7584e-06 -0.0069986 -0.003563 0.0046118 -0.00435141 0.00413112 0.00371859 -0.00332775 0.008047 0.00149725 0.00244485 -0.00143727 0.00735782 -0.00801775 -0.00859591 0.00469512
internal_weight=701 458 217 241 243 197 42 155 175 132 116 127 148 91 126 106 56 66 65 46 67 46 81 52 60
internal_count=701 458 217 241 243 197 42 155 175 132 116 127 148 91 126 106 56 66 65 46 67 46 81 52 60
is_linear=0
shrinkage=0.05


Tree=24
num_leaves=25
num_cat=0
split_feature=6 6 0 0 6 6 6 0 0 0 8 0 7 8 7 7 4 6 7 8 4 2 8 8
split_gain=3.7782 0.882365 0.331735 0.651195 0.258326 0.218309 0.213664 0.122381 0.0823982 0.0741505 0.0739571 0.0741522 0.064975 0.0451747 0.0401519 0.114329 0.0370408 0.0359385 0.0645585 0.0460475 0.0298246 0.0338465 0.0271597 0.0186822
threshold=3.6908304519053781 4.0862736822305754 27.750000000000004 21.450000000000003 3.4587753187681689 3.8463636154267831 4.3143888028937898 4.4500000000000011 29.450000000000003 8.5500000000000025 3.5505182511889672 20.150000000000002 3.9705020044652977 3.8032633206990885 3.9571477826501114 4.0500412547861915 38.500000000000007 3.3566318647398012 3.388656507542072 3.5781664491438878 46.500000000000007 9.5000000000000018 3.7168471229872941 4.0971102309925582
decision_type=2 2 2 2 2 2 2 2 2 2 2 2 2 2 2 2 2 2 2 2 2 2 2 2
left_child=4 2 3 5 17 13 8 -7 9 16 -6 22 -4 20 -9 -16 -3 -1 -19 -20 -2 -22 -12 -11
right_child=1 6 12 -5 10 7 -8 14 -10 23 11 -13 -14 -15 15 -17 -18 18 19 -21 21 -23 -24 -25
leaf_value=-0.0078852816896799668 0.001617476001477123 0.0061972739622241967 0.007029544752599164 -0.0076628248045301954 -0.0011160454213885325 0.004899003254309392 0.0088339569793345462 0.002699992257341939 0.0075104817570674984 0.0036423520650714636 -0.0020672896980411478 -0.0057602843723112817 0.0030918539414733458 -0.0022831396528220338 -0.0019721646241479271 0.0030695579840209 0.0038244969805638338 -0.0036581237279322181 -0.0080622327568776464 -0.005126501442017881 -0.0019266408518888057 0.00075750468835315626 -0.0042125297319144011 0.0016445559851126744
leaf_weight=39 22 38 22 23 28 39 39 38 21 22 36 38 20 28 23 22 29 21 34 22 24 23 25 25
leaf_count=39 22 38 22 23 28 39 39 38 21 22 36 38 20 28 23 22 29 21 34 22 24 23 25 25
internal_value=9.65604e-05 0.00277033 0.00105251 0.000340604 -0.00494289 0.00118115 0.00557412 0.00258878 0.00463239 0.00410221 -0.00338485 -0.00402653 0.00515445 -0.000589281 0.00150326 0.000492678 0.00517025 -0.00664867 -0.00602233 -0.00690891 9.80826e-05 -0.000613123 -0.00294649 0.00257969
internal_weight=701 458 284 242 243 219 174 122 135 114 127 99 42 97 83 45 67 116 77 56 69 47 61 47
internal_count=701 458 284 242 243 219 174 122 135 114 127 99 42 97 83 45 67 116 77 56 69 47 61 47
is_linear=0
shrinkage=0.05


Tree=25
num_leaves=28
num_cat=0
split_feature=6 6 0 6 0 3 3 0 0 0 3 6 6 1 6 3 6 0 7 0 0 4 0 6 0 6 7
split_gain=3.31927 0.821993 0.45696 0.416022 0.178939 0.13828 0.130329 0.125292 0.137949 0.222016 0.107071 0.0774577 0.0725834 0.0673488 0.117592 0.0465948 0.073275 0.0677258 0.0455587 0.0450981 0.0728376 0.0368026 0.0317557 0.0250559 0.0219198 0.00949686 0.00887095
threshold=3.8858543213820771 3.5658170432029705 28.550000000000004 4.1524112447489392 18.650000000000002 1.0000000180025095e-35 1.0000000180025095e-35 1.5500000000000003 27.850000000000005 14.850000000000003 1.0000000180025095e-35 3.3662465356506925 4.3143888028937898 2023.5000000000002 4.0511035181468289 2.5000000000000004 3.792659331669197 10.550000000000002 3.6794767808733106 25.050000000000004 21.750000000000004 115.50000000000001 28.700000000000006 3.4900458577039162 8.5500000000000025 4.0813486532770353 3.7920732548900222
decision_type=2 2 2 2 2 2 2 2 2 2 2 2 2 2 2 2 2 2 2 2 2 2 2 2 2 2 2
left_child=1 10 4 5 6 -2 -3 -7 9 13 -1 -12 22 14 -9 16 -8 26 -19 20 23 -6 24 -13 -5 -15 -17
right_child=3 2 -4 12 21 7 15 8 -10 -11 11 19 -14 25 -16 17 -18 18 -20 -21 -22 -23 -24 -25 -26 -27 -28
leaf_value=-0.0025469271439270908 0.0062649356020604806 0.002643560890219701 0.0056721731287931714 0.0058218403210464342 -0.0030634814792353175 0.0047579613901246841 -0.0044683513912157375 -0.0023322670697234573 0.0050457100542685533 -0.0039050432332303556 -0.0080036264617700838 -0.0058278986900404568 0.0084242904629920519 0.00403392817825079 0.0029650662157853897 0.0014247649582102896 -0.00044280199101194741 -0.00045898281212430452 -0.003793422399377007 -0.003269911867876848 -0.0081196662858128554 -0.0059585697882409607 0.0073528727250439787 -0.0037382305957950079 0.0037468266114592552 0.0025115329593245407 -4.6606282412540165e-05
leaf_weight=26 24 23 24 35 23 37 26 20 22 21 37 32 36 21 22 21 20 20 21 21 25 21 21 26 20 20 20
leaf_count=26 24 23 24 35 23 37 26 20 22 21 37 32 36 21 22 21 20 20 21 21 25 21 21 26 20 20 20
internal_value=0.000210327 -0.00285296 -0.000838095 0.00416494 -0.00163936 0.00272156 -0.000821754 0.00219984 0.00144864 0.000687725 -0.00549521 -0.00603887 0.00657487 0.00184975 0.000442527 -0.00144443 -0.00271811 -0.000729922 -0.00216687 -0.00533987 -0.0058636 -0.00444523 0.00569883 -0.00489115 0.00506729 0.0032913 0.000707023
internal_weight=685 386 219 299 195 187 151 163 126 104 167 141 112 83 42 128 46 82 41 104 83 44 76 58 55 41 41
internal_count=685 386 219 299 195 187 151 163 126 104 167 141 112 83 42 128 46 82 41 104 83 44 76 58 55 41 41
is_linear=0
shrinkage=0.05


Tree=26
num_leaves=28
num_cat=0
split_feature=6 6 0 6 0 3 3 0 0 0 3 6 6 1 6 7 5 3 6 0 7 6 0 8 1 7 7
split_gain=2.99564 0.741849 0.412407 0.37546 0.161493 0.124798 0.117622 0.113076 0.124499 0.200369 0.0966312 0.0699056 0.0655065 0.0607823 0.106127 0.0426321 0.0909408 0.0420518 0.0661307 0.0611225 0.0411167 0.0358285 0.0286596 0.0243558 0.0128774 0.00864114 0.00800603
threshold=3.8858543213820771 3.5658170432029705 28.550000000000004 4.1524112447489392 18.650000000000002 1.0000000180025095e-35 1.0000000180025095e-35 1.5500000000000003 27.850000000000005 14.850000000000003 1.0000000180025095e-35 3.3662465356506925 4.3143888028937898 2023.5000000000002 4.0511035181468289 3.54837401213842 21.500000000000004 2.5000000000000004 3.792659331669197 10.550000000000002 3.6794767808733106 3.6612958533256803 28.700000000000006 4.1122668613149393 2022.5000000000002 4.0896565794526163 3.7920732548900222
decision_type=2 2 2 2 2 2 2 2 2 2 2 2 2 2 2 2 2 2 2 2 2 2 2 2 2 2 2
left_child=1 10 4 5 6 -2 -3 -7 9 13 -1 -12 22 14 -9 16 24 18 -8 26 -21 -6 23 -5 -13 -15 -19
right_child=3 2 -4 12 21 7 17 8 -10 -11 11 15 -14 25 -16 -17 -18 19 -20 20 -22 -23 -24 -25 -26 -27 -28
leaf_value=-0.0024195807950141337 0.0059516888577491045 0.0025113828642212826 0.0053885645407717678 0.005885411911057653 -0.0057859285222366455 0.0045200633294911856 -0.0042449338675046777 -0.0022156537207774821 0.0047934245732903953 -0.0037097911516736659 -0.0076034451809686588 -0.0068240828812122347 0.0080030758658217061 0.0038351159609322041 0.0028168129036203029 -0.006872432463802397 -0.0024474613754136955 0.0013535266581346237 -0.0004206618806347251 -0.00043603365251328793 -0.0036037512744466465 -0.0029204987295088358 0.0069852290852438839 0.0037807063241156618 -0.0051593814922783242 0.0023829278146149592 -4.4275971013121314e-05
leaf_weight=26 24 23 24 27 20 37 26 20 22 21 37 21 36 21 22 25 32 21 20 20 21 24 21 28 26 20 20
leaf_count=26 24 23 24 27 20 37 26 20 22 21 37 21 36 21 22 25 32 21 20 20 21 24 21 28 26 20 20
internal_value=0.000199811 -0.00271031 -0.00079619 0.0039567 -0.00155739 0.00258548 -0.000780666 0.00208985 0.00137621 0.000653338 -0.00522045 -0.00573693 0.00624613 0.00175726 0.0004204 -0.00507288 -0.0045034 -0.00137221 -0.00258221 -0.000693426 -0.00205852 -0.00422297 0.00541389 0.00481393 -0.00590318 0.00312673 0.000671672
internal_weight=685 386 219 299 195 187 151 163 126 104 167 141 112 83 42 104 79 128 46 82 41 44 76 55 47 41 41
internal_count=685 386 219 299 195 187 151 163 126 104 167 141 112 83 42 104 79 128 46 82 41 44 76 55 47 41 41
is_linear=0
shrinkage=0.05


Tree=27
num_leaves=25
num_cat=0
split_feature=6 6 8 6 8 7 3 3 8 6 1 3 8 6 6 3 4 2 7 4 4 5 4 1
split_gain=2.70357 0.669518 0.37264 0.338853 0.229288 0.119755 0.11263 0.0872097 0.081009 0.0908774 0.152698 0.0708015 0.0849648 0.0630898 0.0591196 0.0511646 0.0768252 0.0433837 0.0384755 0.082074 0.030415 0.0235335 0.0226806 0.0116218
threshold=3.8858543213820771 3.5658170432029705 3.5535259836703261 4.1524112447489392 3.6471704707855781 3.8179045169152928 1.0000000180025095e-35 1.0000000180025095e-35 3.9436567511220288 4.0511035181468289 2023.5000000000002 1.5000000000000002 3.8004536430105538 3.3662465356506925 4.3143888028937898 4.5000000000000009 42.500000000000007 7.5000000000000009 3.54837401213842 149.50000000000003 74.500000000000014 23.500000000000004 203.50000000000003 2022.5000000000002
decision_type=2 2 2 2 2 2 2 2 2 2 2 2 2 2 2 2 2 2 2 2 2 2 2 2
left_child=1 7 -3 6 -4 11 -2 -1 -8 10 -10 -6 20 -9 21 16 -11 -7 19 23 -13 -5 -23 -15
right_child=3 2 4 14 5 17 8 13 9 15 -12 12 -14 18 -16 -17 -18 -19 -20 -21 -22 22 -24 -25
leaf_value=-0.0022986017839195065 0.0056541043547137333 0.0057494733820203691 -0.0050216443655598493 0.0041653022793231203 0.00039364081834826405 0.0027302934954475081 0.004156545465144411 -0.0072232728496797989 -0.0026175631998645761 0.0038034382567275317 0.0027740576225066134 0.00025446312036365271 -0.0049745762122752656 -0.0064828786732895041 0.007602922178597914 0.0041277898941189054 -0.00031847811366717975 -0.00023677840945310891 -0.0065288107986561962 -0.0023250883095897734 -0.0021656503957520066 0.0071534473448991781 0.0048269863600249995 -0.0049014124197688386
leaf_weight=26 24 20 36 34 34 28 34 37 29 20 24 20 22 21 36 30 26 22 25 32 37 20 22 26
leaf_count=26 24 20 36 34 34 28 34 37 29 20 24 20 22 21 36 30 26 22 25 32 37 20 22 26
internal_value=0.00018982 -0.0025748 -0.00075638 0.00375886 -0.00141024 -0.000612623 0.00245621 -0.00495943 0.00198535 0.0014131 -0.000176075 -0.00151413 -0.0023352 -0.00545008 0.00593382 0.00252134 0.00147366 0.00142478 -0.00481923 -0.00427823 -0.00131649 0.0051432 0.00593482 -0.00560803
internal_weight=685 386 219 299 199 163 187 167 163 129 53 113 79 141 112 76 46 50 104 79 57 76 42 47
internal_count=685 386 219 299 199 163 187 167 163 129 53 113 79 141 112 76 46 50 104 79 57 76 42 47
is_linear=0
shrinkage=0.05


Tree=28
num_leaves=26
num_cat=0
split_feature=6 0 0 6 6 8 0 1 0 8 8 6 7 8 8 4 4 4 0 6 7 8 4 7 7
split_gain=2.43997 0.642078 0.505304 0.305815 0.106946 0.0983738 0.137492 0.130252 0.240826 0.0612604 0.0976048 0.0533554 0.0523503 0.0874486 0.0420108 0.0847543 0.0820113 0.03409 0.0240638 0.0254239 0.0199334 0.0471627 0.00991224 0.00642114 0.00172758
threshold=3.8858543213820771 27.850000000000005 18.450000000000003 4.1524112447489392 3.5505543852895625 3.9436567511220288 5.1500000000000012 2023.5000000000002 27.550000000000004 3.6418137039032152 3.7726768317663741 4.3143888028937898 3.6423068895087285 3.7483040646169816 3.4639971820737459 141.50000000000003 161.50000000000003 52.500000000000007 4.0500000000000007 4.231208018378692 3.8244229131588563 3.8032633206990885 105.50000000000001 4.0790396918601308 3.9291400491856332
decision_type=2 2 2 2 2 2 2 2 2 2 2 2 2 2 2 2 2 2 2 2 2 2 2 2 2
left_child=1 2 4 5 -1 24 17 8 -8 14 -11 18 -6 22 16 -16 -4 -7 -5 -20 21 -15 -14 -9 -2
right_child=3 -3 9 11 12 6 7 23 -10 10 -12 -13 13 20 15 -17 -18 -19 19 -21 -22 -23 -24 -25 -26
leaf_value=-0.0040503763731846573 0.0041807403034042753 0.0045787499644211497 -0.006127685587853194 0.0034461858843098437 0.0015085867869303279 0.0047306052648998578 -0.0040113543183542787 0.0032590568123850973 0.0029699498804153079 -0.0012889987109228969 -0.0056246592525254803 0.0072227759338501429 -0.0034881688673049217 0.00046243127199468786 -0.0049828448219415853 -0.0086682793657438684 -0.0022098152453757145 0.0021536084512869518 0.0062806481173645484 0.0040679446255256031 0.0010340826388878317 -0.0024609356054993859 -0.0020329664620062846 0.0020072322798660026 0.0048300562170334165
leaf_weight=28 21 30 34 21 23 33 30 21 21 25 27 36 25 37 39 26 22 21 34 21 26 22 22 20 20
leaf_count=28 21 30 34 21 23 33 30 21 21 25 27 36 25 37 39 26 22 21 34 21 26 22 22 20 20
internal_value=0.000180329 -0.00244606 -0.00303804 0.00357092 -0.00120649 0.0023334 0.00172568 0.000550143 -0.0011367 -0.00497546 -0.00354021 0.00563713 -0.000692751 -0.00107632 -0.00559226 -0.00645702 -0.00458852 0.00372844 0.00488604 0.0054358 -0.000119347 -0.000627638 -0.00280701 0.00264841 0.00449748
internal_weight=685 386 356 299 183 187 146 92 51 173 52 112 155 132 121 65 56 54 76 55 85 59 47 41 41
internal_count=685 386 356 299 183 187 146 92 51 173 52 112 155 132 121 65 56 54 76 55 85 59 47 41 41
is_linear=0
shrinkage=0.05


Tree=29
num_leaves=25
num_cat=0
split_feature=6 6 6 7 7 3 3 4 8 8 6 1 8 8 1 6 3 4 4 7 8 5 4 7
split_gain=2.20207 0.55301 0.275998 0.113878 0.115548 0.126968 0.0985795 0.0979241 0.10553 0.0652223 0.0795084 0.127013 0.0561295 0.0523622 0.0487409 0.0481533 0.0453828 0.062713 0.0359692 0.0317007 0.0243526 0.0203688 0.0207064 0.00843769
threshold=3.8858543213820771 3.615035853873918 4.1524112447489392 3.6423068895087285 3.8677134268576805 1.5000000000000002 1.0000000180025095e-35 279.50000000000006 3.6182140491204358 3.9436567511220288 4.0511035181468289 2023.5000000000002 3.8032633206990885 3.768755168789784 2022.5000000000002 4.3143888028937898 4.5000000000000009 42.500000000000007 131.50000000000003 3.5781106117436288 3.4843329948071671 23.500000000000004 203.50000000000003 3.72544747377477
decision_type=2 2 2 2 2 2 2 2 2 2 2 2 2 2 2 2 2 2 2 2 2 2 2 2
left_child=1 7 6 -3 5 -5 -2 8 14 -8 11 -11 13 23 18 21 17 -12 -1 -10 -16 -4 -23 -7
right_child=2 3 15 4 -6 12 9 -9 19 10 16 -13 -14 -15 20 -17 -18 -19 -20 -21 -22 22 -24 -25
leaf_value=-0.0047279332845937463 0.0052085159559889386 0.0026640813251455819 0.0037319649170111757 0.0009755748427622686 0.0016085373260365386 -0.0022560372715815903 0.0037244032383622495 -0.00088240125274751345 -0.0014403654068397978 -0.0024504090486704537 0.0034175866853911429 0.0024668952862460479 -0.0046389379499790573 -5.7920685503631833e-05 -0.0031913186062107949 0.0068616371757040428 0.003812308538084229 -0.00030655401060357694 -0.0073359711550904485 -0.0038137789065812661 -0.0052715517683228595 0.0065425919741392141 0.0043196907162465241 -0.0036465899669565261
leaf_weight=20 24 26 34 35 36 24 34 20 24 29 20 24 24 26 24 36 30 26 39 34 34 20 22 20
leaf_count=20 24 26 34 35 36 24 34 20 24 29 20 24 24 26 24 36 30 26 39 34 34 20 22 20
internal_value=0.000171313 -0.00232376 0.00339237 -0.000411511 -0.00089615 -0.00159513 0.00221673 -0.00419678 -0.00457556 0.00177622 0.00126275 -0.000223705 -0.00255231 -0.00183689 -0.00544005 0.00535527 0.00229935 0.00131264 -0.00645189 -0.00283168 -0.00441077 0.00464173 0.00537822 -0.00288811
internal_weight=685 386 299 191 165 129 187 195 175 163 129 53 94 70 117 112 76 46 59 58 58 76 42 44
internal_count=685 386 299 191 165 129 187 195 175 163 129 53 94 70 117 112 76 46 59 58 58 76 42 44
is_linear=0
shrinkage=0.05


Tree=30
num_leaves=26
num_cat=0
split_feature=6 6 0 0 0 3 0 6 3 3 3 3 0 4 8 0 4 3 6 4 7 8 3 4 3
split_gain=2.05258 0.552629 0.217283 0.21528 0.161099 0.15461 0.14866 0.144249 0.13909 0.0923447 0.113061 0.08372 0.0772015 0.064308 0.0699805 0.0567743 0.0609472 0.111282 0.0499962 0.0376819 0.0278761 0.0779231 0.0178671 0.041885 0.0054718
threshold=3.6908304519053781 4.08445697904925 29.650000000000002 26.850000000000005 1.4500000000000002 1.0000000180025095e-35 13.200000000000001 4.3143888028937898 5.5000000000000009 1.0000000180025095e-35 5.5000000000000009 1.0000000180025095e-35 22.050000000000004 137.50000000000003 3.4639971820737459 29.350000000000005 36.500000000000007 3.5000000000000004 3.9462077105297051 263.50000000000006 3.7831872803797926 3.805388318099312 2.5000000000000004 116.50000000000001 3.5000000000000004
decision_type=2 2 2 2 2 2 2 2 2 2 2 2 2 2 2 2 2 2 2 2 2 2 2 2 2
left_child=3 2 4 6 -2 -6 -1 11 12 -8 13 -3 18 22 19 16 -13 -18 20 -15 -7 -22 -11 -24 -9
right_child=1 7 -4 -5 5 8 9 24 -10 10 -12 15 -14 14 -16 -17 17 -19 -20 -21 21 -23 23 -25 -26
leaf_value=-1.509491376054939e-05 0.0033248129794656331 0.0061972354228297874 0.0051412148274602781 0.0010305972007865255 0.0025775308185580397 -0.00048448286280261294 -0.0018403407558383021 0.0061251175776124009 0.0021124576490061981 -0.003475427203229629 -0.0021017548387559752 0.0041184742306359119 -0.0038387340623059225 -0.0068977168109267952 -0.0082587334269192073 0.0051853384124115115 -0.00064329963995877549 0.0034948535445437304 0.0005206675792578608 -0.0040561157477246269 -0.004439028632128611 -0.00071343345625791705 -0.0035924759022891526 -0.0065167748349873982 0.0072947119548916819
leaf_weight=20 33 21 23 22 36 31 28 20 30 30 30 30 31 20 32 20 33 32 36 28 25 32 25 24 20
leaf_count=20 33 21 23 22 36 31 28 20 30 30 30 30 31 20 32 20 33 32 36 28 25 32 25 24 20
internal_value=-0.000150333 0.00187959 0.000487546 -0.00370075 6.61511e-05 -0.000420436 -0.00413994 0.00407049 -0.00100382 -0.00452011 -0.00491712 0.00329419 -0.00160698 -0.00544832 -0.00644756 0.00276406 0.00225432 0.00139395 -0.00104904 -0.00524012 -0.00169119 -0.00234747 -0.00443642 -0.00502479 0.00670991
internal_weight=712 453 277 259 254 221 237 176 185 217 189 136 155 159 80 115 95 65 124 48 88 57 79 49 40
internal_count=712 453 277 259 254 221 237 176 185 217 189 136 155 159 80 115 95 65 124 48 88 57 79 49 40
is_linear=0
shrinkage=0.05


Tree=31
num_leaves=25
num_cat=0
split_feature=7 0 0 0 3 3 3 0 3 3 0 0 4 7 7 7 7 0 4 8 7 0 0 8
split_gain=1.76986 0.627171 0.582294 0.21512 0.141971 0.163632 0.130871 0.106668 0.102602 0.107322 0.0925682 0.0945383 0.0904636 0.229473 0.0778506 0.0773326 0.0538578 0.037009 0.0317788 0.0278337 0.0275297 0.0244159 0.029975 0.0225179
threshold=3.918563828337029 27.750000000000004 14.15 29.650000000000002 5.5000000000000009 1.0000000180025095e-35 1.0000000180025095e-35 19.450000000000003 1.0000000180025095e-35 5.5000000000000009 10.750000000000002 26.450000000000003 137.50000000000003 3.54837401213842 4.0392385101245525 3.4283790217266374 3.8152752343825265 17.350000000000005 32.500000000000007 3.7281911443086999 4.1953039441243378 6.0500000000000016 1.4500000000000002 3.6083271531030867
decision_type=2 2 2 2 2 2 2 2 2 2 2 2 2 2 2 2 2 2 2 2 2 2 2 2
left_child=1 2 6 8 5 -4 -1 17 -2 10 21 14 23 15 -12 -14 18 -7 -8 -20 -5 22 -10 -9
right_child=3 -3 4 20 -6 7 16 12 9 -11 11 -13 13 -15 -16 -17 -18 -19 19 -21 -22 -23 -24 -25
leaf_value=0.0035137256601869707 0.0047060708186643964 0.0047182274431300658 -0.0015555484606427075 0.0043228364544726601 -0.0013331105444907539 -0.0047377690897081742 0.0003555743262404576 -0.0054049360515948924 0.0027133017593501687 0.0042639520618000205 0.00044865813106298447 0.001858167836855335 -0.0069901349470455898 -0.011479321968826381 -0.0039629899850115186 -0.0031392381230199878 0.0012065383623569058 -0.002119846445404821 -0.00089273505031032445 -0.002946322217978763 0.00656302081188187 0.0033625128661583406 0.00058120456596952861 -0.0032935071129189886
leaf_weight=21 34 30 35 24 37 27 20 28 34 35 20 33 32 22 20 22 26 27 33 33 32 32 32 23
leaf_count=21 34 30 35 24 37 27 20 28 34 35 20 33 32 22 20 22 26 27 33 33 32 32 32 23
internal_value=-0.000142816 -0.00224562 -0.00278685 0.00281248 -0.00419489 -0.0046851 -0.000108415 -0.00529026 0.00216137 0.00174137 0.00122505 -0.000122837 -0.00608174 -0.0071749 -0.00175717 -0.00542125 -0.000787566 -0.00342881 -0.00139043 -0.00191953 0.00560294 0.00222909 0.00167956 -0.00445272
internal_weight=712 416 386 296 253 216 133 181 240 206 171 73 127 76 40 54 112 54 86 66 56 98 66 51
internal_count=712 416 386 296 253 216 133 181 240 206 171 73 127 76 40 54 112 54 86 66 56 98 66 51
is_linear=0
shrinkage=0.05


Tree=32
num_leaves=29
num_cat=0
split_feature=6 6 0 0 0 0 6 6 3 3 3 3 4 7 4 8 0 0 3 4 4 3 7 8 3 4 7 3
split_gain=1.67852 0.460018 0.183107 0.348077 0.175738 0.124443 0.120621 0.115341 0.0879573 0.074773 0.090647 0.0703608 0.0583925 0.0623724 0.0525602 0.0568633 0.046599 0.0653099 0.0394186 0.0322909 0.0309679 0.0256563 0.0192328 0.0606591 0.0159741 0.0367543 0.0143401 0.00535878
threshold=3.6908304519053781 4.08445697904925 27.750000000000004 22.050000000000004 26.850000000000005 13.200000000000001 4.3143888028937898 3.9440515613146179 1.0000000180025095e-35 1.0000000180025095e-35 5.5000000000000009 1.0000000180025095e-35 302.50000000000006 4.0500412547861915 137.50000000000003 3.4639971820737459 28.700000000000006 11.15 5.5000000000000009 263.50000000000006 36.500000000000007 3.5000000000000004 3.7831872803797926 3.805388318099312 2.5000000000000004 116.50000000000001 3.9499510034392276 3.5000000000000004
decision_type=2 2 2 2 2 2 2 2 2 2 2 2 2 2 2 2 2 2 2 2 2 2 2 2 2 2 2 2
left_child=4 2 3 7 5 -1 11 8 -2 -7 14 -3 13 -9 24 19 17 20 22 -16 -13 -22 -10 -24 -11 -26 -4 -8
right_child=1 6 26 -5 -6 9 27 12 18 10 -12 16 -14 -15 15 -17 -18 -19 -20 -21 21 -23 23 -25 25 -27 -28 -29
leaf_value=3.081335424212739e-05 0.0022708675519634899 0.0056503862153650039 0.0044267163944563702 -0.0062500279441121079 0.00092847436105578454 -0.0016795985494224754 0.00553376242518425 -0.0010728714975994081 -0.00037685748914466995 -0.0031003790923083822 -0.001927322861738503 0.003980967381784435 0.0040495213177055124 0.0025318836048245433 -0.0062732633855193858 -0.0074598520935978746 0.0045160061598795908 -0.00044976059524785909 0.0010046755024675457 -0.0036427719950942062 0.00062080763635181252 0.0030923767264799348 -0.0036255449892321069 -0.00048289867528878593 -0.0032236437555402519 -0.0059629861401238795 0.0025559734928901892 0.0066912139113992457
leaf_weight=20 26 21 21 21 22 28 20 20 31 30 30 29 25 30 20 32 23 21 21 28 21 21 28 34 25 24 20 20
leaf_count=20 26 21 21 21 22 28 20 20 31 30 30 29 25 30 20 32 23 21 21 28 21 21 28 34 25 24 20 20
internal_value=-0.000135675 0.00169999 0.000429933 -0.000105886 -0.00334632 -0.00374314 0.0036989 0.000494239 -0.000353398 -0.00409097 -0.00444821 0.00298902 0.00207649 0.00108998 -0.00492385 -0.00582723 0.00250303 0.00199978 -0.000951914 -0.00473881 0.00272429 0.00185659 -0.00139372 -0.00190216 -0.00400904 -0.00456536 0.00351416 0.00611249
internal_weight=712 453 277 236 259 237 176 215 140 217 189 136 75 50 159 80 115 92 114 48 71 42 93 62 79 49 41 40
internal_count=712 453 277 236 259 237 176 215 140 217 189 136 75 50 159 80 115 92 114 48 71 42 93 62 79 49 41 40
is_linear=0
shrinkage=0.05


Tree=33
num_leaves=28
num_cat=0
split_feature=6 6 6 8 4 1 3 3 7 8 7 6 8 4 3 4 8 3 3 4 5 8 4 4 4 3 6
split_gain=1.51487 0.415166 0.10886 0.107439 0.113851 0.116803 0.105424 0.0781146 0.0717091 0.114461 0.0714923 0.0650119 0.0757549 0.0809147 0.0635006 0.0614335 0.0509497 0.0387838 0.0325084 0.0483626 0.0311337 0.0292304 0.0225593 0.0164694 0.0346792 0.0048363 0.00229957
threshold=3.6908304519053781 4.08445697904925 4.3143888028937898 3.6083271531030867 335.50000000000006 2023.5000000000002 1.0000000180025095e-35 5.5000000000000009 3.9218776345387965 3.8135794144373807 4.0121662820622106 3.3662465356506925 3.458632537487643 153.50000000000003 1.0000000180025095e-35 141.50000000000003 3.687757793581079 1.5000000000000002 3.5000000000000004 187.50000000000003 8.5000000000000018 3.7914723554320906 79.500000000000014 103.50000000000001 120.50000000000001 3.5000000000000004 3.343073245467957
decision_type=2 2 2 2 2 2 2 2 2 2 2 2 2 2 2 2 2 2 2 2 2 2 2 2 2 2 2
left_child=6 3 14 -2 5 8 -1 11 9 16 -10 26 13 -13 -3 23 -5 -18 19 -16 -20 -19 -7 -14 -25 -4 -8
right_child=1 2 25 4 -6 22 7 -9 10 -11 -12 12 15 -15 18 -17 17 21 20 -21 -22 -23 -24 24 -26 -27 -28
leaf_value=-0.00058398046838941385 0.003534817025065422 0.0053678669445660146 0.0052570741798263045 -0.0028964134055296082 0.003231612246376104 0.0031314351191015347 -0.005384942055458114 -0.0015044632208484569 0.0021224263237055504 -0.0050397196237463512 -0.0010586927800479891 -0.0040602932963520284 -0.0027085022036252276 0.0002882022337238912 0.0026969536995131746 -0.0062816694810020716 0.0015525975486856292 0.00037534293702005278 0.0017073519319555173 -0.0003116704608229074 0.0040825478496903881 -0.0021550425356253984 0.00086477791912676315 -0.0056043114424461412 -0.0026951226856908764 0.0063566532358527196 -0.0061340771941468123
leaf_weight=34 25 21 20 23 26 23 21 38 33 20 38 20 35 23 34 27 22 21 22 22 37 25 21 21 20 20 20
leaf_count=34 25 21 20 23 26 23 21 38 33 20 38 20 35 23 34 27 22 21 22 22 37 25 21 21 20 20 20
internal_value=-0.000128892 0.00161499 0.00351395 0.000408436 9.82793e-05 -0.000262193 -0.00317901 -0.00357115 -0.000821093 -0.00161485 0.000419856 -0.00399111 -0.00349707 -0.00173435 0.00283957 -0.00423297 -0.000862134 -0.000174069 0.00237788 0.00151499 0.00319688 -0.000999867 0.00204962 -0.00350514 -0.00418519 0.00580686 -0.00575037
internal_weight=712 453 176 277 252 226 259 225 182 111 71 187 146 43 136 103 91 68 115 56 59 46 44 76 41 40 41
internal_count=712 453 176 277 252 226 259 225 182 111 71 187 146 43 136 103 91 68 115 56 59 46 44 76 41 40 41
is_linear=0
shrinkage=0.05


Tree=34
num_leaves=27
num_cat=0
split_feature=6 0 0 6 8 3 3 3 3 7 1 3 3 5 6 5 7 7 6 7 8 7 5 8 0 3
split_gain=1.37402 0.4645 0.372719 0.150284 0.123462 0.120416 0.10247 0.0975871 0.102965 0.108538 0.0991132 0.0738328 0.0731015 0.0700102 0.0717568 0.0640599 0.126719 0.0414697 0.0378514 0.0253195 0.0566851 0.0233565 0.020409 0.0184297 0.0184563 0.00436476
threshold=3.9566669086172808 28.550000000000004 18.450000000000003 4.3143888028937898 3.9412003870268681 1.0000000180025095e-35 1.0000000180025095e-35 1.0000000180025095e-35 5.5000000000000009 4.0721725437040979 2023.5000000000002 5.5000000000000009 5.5000000000000009 31.500000000000004 4.186409310945435 24.500000000000004 3.5515063608530331 3.5920394712028947 3.6758079214795196 3.7831872803797926 3.805388318099312 3.6123706511690239 4.5000000000000009 3.4233611330737967 22.850000000000005 3.5000000000000004
decision_type=2 2 2 2 2 2 2 2 2 2 2 2 2 2 2 2 2 2 2 2 2 2 2 2 2 2
left_child=1 2 6 4 -2 -4 -1 -6 9 10 -9 18 15 14 22 17 -17 23 21 -20 -21 -8 -11 -7 -25 -5
right_child=3 -3 5 25 7 12 11 8 -10 13 -12 -13 -14 -15 -16 16 -18 -19 19 20 -22 -23 -24 24 -26 -27
leaf_value=0.0018611256649056749 0.0051870034701035671 0.0040627393480991165 -0.0010357749560198776 0.0049942205450497568 0.0045429847854258562 -0.0058156482786649753 -0.0019826441526549451 -0.0032388291151549385 0.0042788723781704901 0.0027433696365915241 0.0013795359414957818 0.00079904267697462016 -0.0019472486943144492 -0.00083608064977895656 0.0047651230600541054 -0.004260894382428943 -0.0093046783240060913 -0.0020872387738729067 -3.2990721047099213e-05 -0.0034175128850620243 -0.00033697913895593958 -0.0042036925023421646 0.00076091816315326745 -0.0048683538459174877 -0.0028796540806069974 0.0060388205666095027
leaf_weight=31 30 31 33 20 27 21 29 26 25 20 21 35 27 21 23 33 20 22 32 28 32 20 37 28 20 20
leaf_count=31 30 31 33 20 27 21 29 26 25 20 21 35 27 21 23 33 20 22 32 28 32 20 37 28 20 20
internal_value=-0.000122447 -0.00183916 -0.00228431 0.00268787 0.00219593 -0.00380105 -0.000789558 0.00174727 0.00131095 0.000809609 -0.0011753 -0.00125644 -0.0043347 0.00173328 0.00240774 -0.00478235 -0.00616421 -0.00397753 -0.00176667 -0.0011688 -0.00177456 -0.00288919 0.00145652 -0.00458023 -0.00403973 0.00551652
internal_weight=712 442 411 270 230 204 207 200 173 148 47 176 171 101 80 144 53 91 141 92 60 49 57 69 48 40
internal_count=712 442 411 270 230 204 207 200 173 148 47 176 171 101 80 144 53 91 141 92 60 49 57 69 48 40
is_linear=0
shrinkage=0.05


Tree=35
num_leaves=27
num_cat=0
split_feature=6 6 0 0 0 3 3 6 8 0 1 7 3 8 7 7 7 2 7 3 1 3 3 5 3 0
split_gain=1.31737 0.282076 0.213483 0.168643 0.168785 0.119547 0.0782329 0.0700856 0.0809929 0.08554 0.0688418 0.0447704 0.0325938 0.0305649 0.0277871 0.0274243 0.0268172 0.0251806 0.03646 0.0727996 0.0247298 0.0236181 0.0534586 0.0220144 0.0222312 0.00882964
threshold=3.6908304519053781 4.0042487083126543 29.750000000000004 26.550000000000004 15.65 1.0000000180025095e-35 5.5000000000000009 4.2193679186825888 4.1114699925341567 8.6500000000000004 2022.5000000000002 4.216579329492963 2.5000000000000004 4.099852258219955 3.6329209961037936 3.5102227857464858 3.4047459766894668 9.5000000000000018 3.8873937759650583 2.5000000000000004 2022.5000000000002 4.5000000000000009 2.5000000000000004 19.500000000000004 3.5000000000000004 20.950000000000003
decision_type=2 2 2 2 2 2 2 2 2 2 2 2 2 2 2 2 2 2 2 2 2 2 2 2 2 2
left_child=3 2 5 4 14 -2 17 8 13 -10 15 -9 -13 21 -1 16 -6 18 19 -7 -19 22 -3 25 -25 -12
right_child=1 7 -4 -5 10 6 -8 11 9 -11 23 12 -14 -15 -16 -17 -18 20 -20 -21 -22 -23 -24 24 -26 -27
leaf_value=0.00060995439998805527 0.002845746767143869 0.0034925290727187532 0.0054224844742566357 0.0013748504666854506 -0.005111827548497763 -0.0045627787238283254 0.0017680010905799768 0.0024296634741837069 0.0026714889252056873 -0.0015647179044952445 -0.0015577717317716668 0.0037812024227936165 0.0063961339039871326 0.0047242919746786358 -0.0017758710988108881 -0.0063999084925109697 -0.0028956210462465176 -0.0012619560212792399 -8.4766804745110375e-05 -0.00087149142887296075 0.00094050549529492856 0.0038539056524314222 0.0004067046460695565 -0.0027713347288344297 -0.0048495824702761391 -0.0029438683949410916
leaf_weight=26 31 32 20 23 39 22 30 21 26 22 27 22 26 25 23 22 21 26 27 34 25 31 25 31 22 20
leaf_count=26 31 32 20 23 39 22 30 21 26 22 27 22 26 25 23 22 21 26 27 34 25 31 25 31 22 20
internal_value=0.000164933 0.00180485 0.000502833 -0.00270815 -0.00311469 -1.74657e-06 -0.000539992 0.00302196 0.00245057 0.000729894 -0.00381597 0.0043552 0.00519762 0.00318148 -0.000509923 -0.00488985 -0.00433616 -0.00105671 -0.00159398 -0.00232164 -0.000182318 0.00274318 0.0021391 -0.00293539 -0.003634 -0.0021476
internal_weight=699 445 215 254 231 195 164 230 161 48 182 69 48 113 49 82 60 134 83 56 51 88 57 100 53 47
internal_count=699 445 215 254 231 195 164 230 161 48 182 69 48 113 49 82 60 134 83 56 51 88 57 100 53 47
is_linear=0
shrinkage=0.05


Tree=36
num_leaves=28
num_cat=0
split_feature=6 6 0 0 0 3 6 3 6 8 0 8 1 8 3 3 0 0 4 3 3 3 4 4 4 6 0
split_gain=1.18893 0.254574 0.192668 0.152201 0.154895 0.107891 0.0769863 0.0706052 0.0632522 0.0730961 0.0771998 0.0376258 0.0371375 0.0317378 0.0290889 0.0453195 0.024634 0.0390661 0.0239234 0.0208212 0.0190693 0.0190407 0.017043 0.0144771 0.0122507 0.00930525 0.00850025
threshold=3.6908304519053781 4.0042487083126543 29.750000000000004 26.550000000000004 18.450000000000003 1.0000000180025095e-35 3.4587753187681689 5.5000000000000009 4.2193679186825888 4.1114699925341567 8.6500000000000004 4.1528395227843733 2022.5000000000002 3.6182140491204358 1.5000000000000002 4.5000000000000009 18.850000000000005 12.950000000000001 126.50000000000001 3.5000000000000004 2.5000000000000004 1.5000000000000002 139.50000000000003 78.500000000000014 201.50000000000003 4.3509067020219101 8.3500000000000032
decision_type=2 2 2 2 2 2 2 2 2 2 2 2 2 2 2 2 2 2 2 2 2 2 2 2 2 2 2
left_child=3 2 5 4 6 -2 -1 16 9 14 -11 -10 18 -8 -3 24 17 20 -6 -20 -7 -14 -23 -15 -16 -13 -22
right_child=1 8 -4 -5 12 7 13 -9 11 10 -12 25 21 23 15 -17 -18 -19 19 -21 26 22 -24 -25 -26 -27 -28
leaf_value=-0.0038465528582621901 0.0027034593924444412 0.0043567621931045629 0.0051513601839542388 0.0013061079237124196 -0.0034526434427659424 -0.0023047258908828272 0.0012368882970241388 0.0016796010779216886 0.0027245747528338274 0.002537914416797531 -0.001486482009799643 0.0058741819206625228 -0.0020112552092462505 -0.00019066319917328657 0.00054410554294008766 0.0038115213857963684 -0.0025764575908570329 0.00083473276502142352 -0.0066376399348622986 -0.0044365609953687952 -0.00019500495627653436 -0.0029038338987447789 -0.0045773648656904703 -0.0020703155131611443 0.002204351278487593 0.0043672234252361318 -0.0014717268106654625
leaf_weight=21 31 30 20 23 21 29 21 30 28 26 22 20 23 20 20 38 21 30 21 22 32 32 29 21 25 21 22
leaf_count=21 31 30 20 23 21 29 21 30 28 26 22 20 23 20 20 38 21 30 21 22 32 32 29 21 25 21 22
internal_value=0.000156687 0.00171461 0.000477691 -0.00257275 -0.00295895 -1.65924e-06 -0.00123003 -0.000512993 0.00287086 0.00232804 0.000693399 0.00413744 -0.00392855 -0.000343794 0.0030224 0.0025401 -0.00100387 -0.000711621 -0.00483594 -0.00551151 -0.00127054 -0.0032372 -0.00369945 -0.00115341 0.00146646 0.00510233 -0.000715151
internal_weight=699 445 215 254 231 195 83 164 230 161 48 69 148 62 113 83 134 113 64 43 83 84 61 41 45 41 54
internal_count=699 445 215 254 231 195 83 164 230 161 48 69 148 62 113 83 134 113 64 43 83 84 61 41 45 41 54
is_linear=0
shrinkage=0.05


Tree=37
num_leaves=28
num_cat=0
split_feature=6 6 0 0 0 3 6 3 0 0 7 1 1 0 3 3 7 0 0 5 0 0 3 7 6 0 6
split_gain=1.07301 0.229753 0.173883 0.137361 0.139793 0.0973716 0.0707363 0.0637212 0.0594 0.112067 0.0572557 0.0526107 0.0335166 0.0282745 0.0364424 0.0244476 0.0224295 0.0222322 0.0352571 0.0191519 0.01748 0.0228749 0.0171842 0.0148844 0.0107306 0.00879414 0.00499062
threshold=3.6908304519053781 4.0042487083126543 29.750000000000004 26.550000000000004 18.450000000000003 1.0000000180025095e-35 3.4900458577039162 5.5000000000000009 26.650000000000002 13.900000000000002 3.6329209961037936 2022.5000000000002 2022.5000000000002 8.5500000000000025 2.5000000000000004 4.5000000000000009 3.5102227857464858 18.850000000000005 12.950000000000001 6.5000000000000009 9.6500000000000004 4.7000000000000002 1.5000000000000002 4.3031078258337274 3.3717742163265556 22.850000000000005 3.5075392325949037
decision_type=2 2 2 2 2 2 2 2 2 2 2 2 2 2 2 2 2 2 2 2 2 2 2 2 2 2 2
left_child=3 2 5 4 6 -2 -1 17 9 13 -8 -10 16 14 19 -16 24 18 20 -3 21 -7 -14 -13 -6 26 -24
right_child=1 8 -4 -5 12 7 10 -9 11 -11 -12 23 22 -15 15 -17 -18 -19 -20 -21 -22 -23 25 -25 -26 -27 -28
leaf_value=-0.0033918230310082433 0.0025682863903292007 0.0052189718365711589 0.0048937921738252052 0.0012408025049017338 -0.0046758696989854798 -0.0017801473866191891 0.0013074740634571452 0.0015956209801758329 0.0020468167799453322 -0.0013284406400634909 -0.0018363160933534215 0.0058335389941930778 -0.00191069247540208 0.0013872260821699456 0.0012410397390465672 0.0032941094904752641 -0.0059825010551139719 -0.0024476347347011881 0.00079299610729018858 0.0031326608436012811 -0.0023447021644339358 0.00019143671188137361 -0.0045079588843509556 0.0040856563550387996 -0.0031077191777512782 -0.0026859182487463671 -0.003390974608482793
leaf_weight=25 31 22 20 23 24 28 30 30 26 20 28 21 23 32 29 29 20 21 30 22 24 31 20 29 20 21 20
leaf_count=25 31 22 20 23 24 28 30 30 26 20 28 21 23 32 29 29 20 21 30 22 24 31 20 29 20 21 20
internal_value=0.000148852 0.00162888 0.000453807 -0.00244411 -0.00281101 -1.5763e-06 -0.00116853 -0.000487343 0.00272732 0.00216284 -0.000210218 0.00387113 -0.00373212 0.00268393 0.00309074 0.00226757 -0.00459414 -0.000953678 -0.00067604 0.00417582 -0.00120702 -0.00074423 -0.00307534 0.00481977 -0.00396307 -0.00351447 -0.00394947
internal_weight=699 445 215 254 231 195 83 164 230 154 58 76 148 134 102 58 64 134 113 44 83 59 84 50 44 61 40
internal_count=699 445 215 254 231 195 83 164 230 154 58 76 148 134 102 58 64 134 113 44 83 59 84 50 44 61 40
is_linear=0
shrinkage=0.05


Tree=38
num_leaves=28
num_cat=0
split_feature=6 0 0 6 3 5 0 0 6 3 3 2 3 0 0 3 3 3 8 8 5 6 6 3 6 8 0
split_gain=0.9723 0.349295 0.137635 0.123011 0.132325 0.0629408 0.0627394 0.148709 0.0452714 0.0449133 0.0450209 0.0463107 0.0404031 0.0576743 0.0856422 0.0520372 0.0401883 0.043249 0.0306009 0.0337412 0.0696628 0.0245121 0.0345224 0.0214918 0.0205301 0.0190279 0.0166377
threshold=3.792659331669197 28.050000000000004 18.450000000000003 4.0905713707103102 1.0000000180025095e-35 40.500000000000007 27.750000000000004 18.350000000000005 3.5075392325949037 1.5000000000000002 5.5000000000000009 11.500000000000002 5.5000000000000009 26.650000000000002 9.0500000000000025 2.5000000000000004 1.0000000180025095e-35 5.5000000000000009 3.6418137039032152 3.458632537487643 20.500000000000004 3.9504694178066075 3.8191253838086108 2.5000000000000004 3.7114819777186354 4.2398841524079822 12.15
decision_type=2 2 2 2 2 2 2 2 2 2 2 2 2 2 2 2 2 2 2 2 2 2 2 2 2 2 2
left_child=1 2 5 4 -2 8 7 9 -1 -6 11 21 13 14 15 -5 -4 18 19 -18 -21 22 -11 24 -10 -15 -25
right_child=3 -3 16 12 6 -7 -8 -9 23 10 -12 -13 -14 25 -16 -17 17 -19 -20 20 -22 -23 -24 26 -26 -27 -28
leaf_value=-0.0036805690598807166 0.0044448445730197895 0.0042623789793155582 -0.0012114017424623442 0.0043328511056293234 0.0028706912335980197 0.0011866243722033687 0.0030134727838837232 -0.0037596029136329891 -0.00088751109353986325 3.8207084871828561e-05 0.0026064364251215011 0.002068695985335147 0.0047157127858587994 0.0028668432251184382 -0.0011160064660361967 0.0012767085031858492 -0.0032504348997743088 -0.0015069348039105535 -0.0026326779390931027 -0.0036580287827140037 -0.007412814450938077 0.00039533677832771308 -0.0028995830402709544 0.0006645260051646759 -0.0031009301997255538 0.0046942062266492127 -0.0011834346315951953
leaf_weight=21 26 22 22 26 23 25 24 20 22 20 20 21 27 28 20 30 39 23 36 30 21 34 20 21 20 29 29
leaf_count=21 26 22 22 26 23 25 24 20 22 20 20 21 27 28 20 30 39 23 36 30 21 34 20 21 20 29 29
internal_value=0.00014141 -0.00182485 -0.00225825 0.00190998 0.00110821 -0.00108359 0.000631552 0.000269741 -0.00158584 0.000853704 0.000450307 -3.61529e-06 0.00295227 0.00259428 0.00169257 0.00269563 -0.00320622 -0.00350076 -0.00386471 -0.00435752 -0.00520412 -0.000591704 -0.00143069 -0.0011077 -0.00194152 0.00379655 -0.000407291
internal_weight=699 331 309 368 208 138 182 158 113 138 115 95 160 133 76 56 171 149 126 90 51 74 40 92 42 57 50
internal_count=699 331 309 368 208 138 182 158 113 138 115 95 160 133 76 56 171 149 126 90 51 74 40 92 42 57 50
is_linear=0
shrinkage=0.05


Tree=39
num_leaves=26
num_cat=0
split_feature=6 0 0 6 8 4 0 0 6 4 6 6 8 0 0 0 7 6 8 0 8 4 4 4 1
split_gain=0.8775 0.315238 0.124215 0.111017 0.0618329 0.0601454 0.0498631 0.0754924 0.0594781 0.0484109 0.0365505 0.0340897 0.0291168 0.0268507 0.0659101 0.0292222 0.0254831 0.0213311 0.0416757 0.0200553 0.0251851 0.0558287 0.0189298 0.00979672 0.0018117
threshold=3.792659331669197 28.050000000000004 18.450000000000003 4.0905713707103102 4.1052251758731346 281.50000000000006 27.850000000000005 16.950000000000003 3.9397017442450908 74.500000000000014 3.6357753964902675 4.3143888028937898 3.6955863551052484 8.5500000000000025 26.650000000000002 4.0500000000000007 3.7613211521851473 3.5075392325949037 3.6828682325635529 24.350000000000005 3.4639971820737459 141.50000000000003 299.50000000000006 319.50000000000006 2022.5000000000002
decision_type=2 2 2 2 2 2 2 2 2 2 2 2 2 2 2 2 2 2 2 2 2 2 2 2 2
left_child=1 2 5 4 6 9 7 8 22 16 12 13 19 15 -15 -5 -1 -11 -19 20 24 -22 -2 -10 -4
right_child=3 -3 10 11 -6 -7 -8 -9 23 17 -12 -13 -14 14 -16 -17 -18 18 -20 -21 21 -23 -24 -25 -26
leaf_value=0.00090973780391758071 0.0015214088126750932 0.0040492600338025526 -0.0033589755010325463 0.0022703440625516831 -0.00093242430699650542 0.0011370703110095256 0.0037127126895246058 -0.0013992064036428928 0.003503466554268796 -0.0037404425954446195 -0.0010922244140168741 0.0041591627309874946 -0.0016391146483577112 -9.1717341759552573e-06 0.0032062359212860058 0.0045227425708920547 -0.0014993310742457177 -0.00044165792351122949 -0.0033985407753127882 -0.0025463273621756924 -0.0034194181799916006 -0.006698340461367653 -8.033228447087683e-05 0.0021686217885602405 -0.0026859787064677223
leaf_weight=23 35 22 20 36 33 26 21 25 28 20 21 36 22 30 34 24 21 26 22 33 34 21 39 27 20
leaf_count=23 35 22 20 36 33 26 21 25 28 20 21 36 22 30 34 24 21 26 22 33 34 21 39 27 20
internal_value=0.000134339 -0.00173361 -0.00214533 0.00181448 0.0010528 -0.00102941 0.00142716 0.00111549 0.00160284 -0.00153234 -0.00304591 0.00280466 -0.00331943 0.00241141 0.00169901 0.0031713 -0.000240045 -0.00236853 -0.0017969 -0.00360823 -0.0039771 -0.00467137 0.000677248 0.00284818 -0.00302248
internal_weight=699 331 309 368 208 138 175 154 129 112 171 160 150 124 64 60 44 68 48 128 95 55 74 55 40
internal_count=699 331 309 368 208 138 175 154 129 112 171 160 150 124 64 60 44 68 48 128 95 55 74 55 40
is_linear=0
shrinkage=0.05


Tree=40
num_leaves=27
num_cat=0
split_feature=6 0 0 1 5 0 0 7 4 8 4 6 8 7 7 8 8 8 5 0 8 7 6 7 7 0
split_gain=0.642867 0.231728 0.181951 0.14858 0.119623 0.0806002 0.0594047 0.0562855 0.0374745 0.0324868 0.0714695 0.0478674 0.0607 0.0305776 0.0512561 0.0445632 0.0449585 0.0300977 0.0292749 0.0272259 0.0252008 0.0231465 0.0201456 0.0252625 0.0111459 0.00902563
